{"learner":{"attributes":{"best_iteration":"213","best_score":"0.10445430487043939","scikit_learn":"{\"_estimator_type\": \"classifier\"}"},"feature_names":["NUMBER_OF_REQUESTS","TOTAL_DURATION","AVERAGE_TIME","REPEATED_REQUESTS","HTTP_RESPONSE_2XX","HTTP_RESPONSE_3XX","HTTP_RESPONSE_4XX","HTTP_RESPONSE_5XX","GET_METHOD","POST_METHOD","HEAD_METHOD","OTHER_METHOD","NIGHT","IMAGES","TOTAL_HTML","HTML_TO_IMAGE","HTML_TO_CSS","HTML_TO_JS","DEPTH","STD_DEPTH","CONSECUTIVE","DATA","PPI","MAX_BARRAGE"],"feature_types":["int","int","float","float","float","float","float","float","float","float","float","float","float","float","float","float","float","float","float","float","float","float","float","int"],"gradient_booster":{"model":{"gbtree_model_param":{"num_parallel_tree":"1","num_trees":"264"},"iteration_indptr":[0,1,2,3,4,5,6,7,8,9,10,11,12,13,14,15,16,17,18,19,20,21,22,23,24,25,26,27,28,29,30,31,32,33,34,35,36,37,38,39,40,41,42,43,44,45,46,47,48,49,50,51,52,53,54,55,56,57,58,59,60,61,62,63,64,65,66,67,68,69,70,71,72,73,74,75,76,77,78,79,80,81,82,83,84,85,86,87,88,89,90,91,92,93,94,95,96,97,98,99,100,101,102,103,104,105,106,107,108,109,110,111,112,113,114,115,116,117,118,119,120,121,122,123,124,125,126,127,128,129,130,131,132,133,134,135,136,137,138,139,140,141,142,143,144,145,146,147,148,149,150,151,152,153,154,155,156,157,158,159,160,161,162,163,164,165,166,167,168,169,170,171,172,173,174,175,176,177,178,179,180,181,182,183,184,185,186,187,188,189,190,191,192,193,194,195,196,197,198,199,200,201,202,203,204,205,206,207,208,209,210,211,212,213,214,215,216,217,218,219,220,221,222,223,224,225,226,227,228,229,230,231,232,233,234,235,236,237,238,239,240,241,242,243,244,245,246,247,248,249,250,251,252,253,254,255,256,257,258,259,260,261,262,263,264],"tree_info":[0,0,0,0,0,0,0,0,0,0,0,0,0,0,0,0,0,0,0,0,0,0,0,0,0,0,0,0,0,0,0,0,0,0,0,0,0,0,0,0,0,0,0,0,0,0,0,0,0,0,0,0,0,0,0,0,0,0,0,0,0,0,0,0,0,0,0,0,0,0,0,0,0,0,0,0,0,0,0,0,0,0,0,0,0,0,0,0,0,0,0,0,0,0,0,0,0,0,0,0,0,0,0,0,0,0,0,0,0,0,0,0,0,0,0,0,0,0,0,0,0,0,0,0,0,0,0,0,0,0,0,0,0,0,0,0,0,0,0,0,0,0,0,0,0,0,0,0,0,0,0,0,0,0,0,0,0,0,0,0,0,0,0,0,0,0,0,0,0,0,0,0,0,0,0,0,0,0,0,0,0,0,0,0,0,0,0,0,0,0,0,0,0,0,0,0,0,0,0,0,0,0,0,0,0,0,0,0,0,0,0,0,0,0,0,0,0,0,0,0,0,0,0,0,0,0,0,0,0,0,0,0,0,0,0,0,0,0,0,0,0,0,0,0,0,0,0,0,0,0,0,0,0,0,0,0,0,0,0,0,0,0,0,0],"trees":[{"base_weights":[-2.2336545E-3,8.717412E-1,-1.9256116E0,1.1904453E0,-1.2601215E0,4.026972E-1,-1.9705595E0,1.3980602E0,-4.4138664E-1,-1.8055679E-1,-1.8027953E0,-9.9162537E-1,1.3425554E0,-1.9815295E0,7.155435E-1,1.2815945E0,1.9436287E0,8.203128E-1,-1.1917402E0,5.774645E-1,-6.293453E-1,-0E0,-1.8665097E0,2.899817E-1,-1.5801485E0,1.6198001E0,-5.755081E-1,-4.944751E-1,8.307926E-3,3.705011E-1,-2.4840018E-1,1.3555863E0,-4.528827E-1,1.9744872E0,9.7671546E-2,1.8041403E0,-5.392152E-1,-6.103566E-1,-1.899231E0,8.8978E-1,-1.1353774E0,-8.979497E-1,3.747355E-1,6.167947E-1,-3.246843E-1,-1.8779006E0,1.4403737E-1,3.7982833E-2,-4.297985E-1,-5.3159997E-2,1.6902741E0,5.7941016E-2,-2.3629406E-1,7.944062E-2,-3.408967E-2,1.2588193E0,1.8815247E0,5.122553E-1,-1.0888661E0,4.9342123E-1,1.8523793E-1,-3.5471797E-1,3.705011E-1,4.797492E-1,-5.797093E-1,-1.7481794E0,1.0594426E0,-1.2503918E0,7.001991E-1,-1.9164684E0,1.9406045E-2,-4.4245017E-1,1.1365907E0,-1.4554034E0,1.6386427E-1,-1.1108187E0,6.854093E-1,9.2023146E-1,-1.0170679E0,7.192581E-1,-5.3159997E-2,-2.541599E-1,-1.8832661E0,4.3826574E-1,-0E0,1.326201E0,-5.7571256E-1,1.900139E0,4.0611175E-1,-1.2786709E0,1.2295052E0,-4.2722818E-1,-1.6215568E0,-8.696133E-2,1.6386427E-1,-2.9532048E-1,1.4403737E-1,9.108892E-2,-4.6160117E-1,1.3896898E0,-3.0267072E-1,1.0909777E0,-1.6218512E0,1.0789157E0,-6.2439275E-1,-4.8226124E-1,-4.0089954E-3,2.0838878E-1,-1.225196E0,1.3642048E0,-7.7892673E-1,3.7982833E-2,-4.0783018E-1,-1.186369E0,7.4114966E-1,2.9543114E-1,-3.9444875E-2,2.2821529E-1,1.1257252E0,-0E0,-3.5079017E-1,8.071931E-1,-3.408967E-2,7.944062E-2,-1.733575E-1,-1.4675729E0,-4.809737E-1,7.944062E-2,-5.3159997E-2,9.0984523E-1,1.445696E0,1.173747E0,-1.1974634E0,1.9105498E0,6.2758476E-1,1.0494711E0,-2.1576843E-1,-1.5353332E0,2.4211131E-1,1.7057577E0,1.3845089E-1,3.3127227E-1,-8.74399E-1,-4.2677397E-1,-3.323704E-1,3.6614478E-1,3.7042576E-1,-1.9176081E-1,1.3927002E0,-4.5948458E-1,-9.9217045E-1,1.368542E0,-9.8902917E-1,3.9098734E-1,-9.667778E-1,-1.15996644E-1,7.944062E-2,-1.1220528E-1,-3.4874484E-1,1.5105425E0,-0E0,-2.5027484E-1,3.7982833E-2,-8.149605E-1,-1.6983079E0,2.600099E-1,-5.3159997E-2,4.9737167E-1,-6.040575E-1,2.2652361E-1,-2.229579E-1,2.9088667E-1,8.307926E-3,1.2536244E-1,-1.15996644E-1,1.459601E-1,2.71754E-1,-1.6907333E0,5.6973314E-1,3.2681215E-1,1.5202694E-1,2.6980424E-1,4.1505787E-1,1.06971115E-2,3.3023572E-1,-3.9865488E-1,-7.858515E-2,3.6893013E-1,4.8531663E-1,2.3364386E-1,-1.4868005E-2,2.072027E-3,2.8643727E-1,-4.0408563E-2,-4.1614056E-1,-7.072687E-2,1.6386427E-1,4.4537485E-1,-7.072687E-2,-1.367529E-1,2.0873018E-1,-4.251673E-1,2.013169E-1,-2.54044E-1,1.6386427E-1,-5.3159997E-2,1.4649333E-1,-1.0200944E-1,3.9076164E-1,-3.6308742E-1,-0E0,3.816751E-1,-2.229579E-1,7.944062E-2,-3.246843E-1,-7.072687E-2,1.8488672E-1,1.077419E-1,-3.2832557E-1,-1.4120758E-1,7.944062E-2,3.9185157E-1,-1.15996644E-1,1.0158497E-1,-1.9176081E-1,-2.856946E-1,1.1237713E-1,-4.3856123E-1,5.7941016E-2,-3.408967E-2,1.8488672E-1,3.7982833E-2,-2.3629406E-1,-3.408967E-2,7.944062E-2,1.3464798E-1,-1.2903132E-1,-3.793592E-2,-4.5858607E-1,-8.696133E-2,2.207948E-1],"categories":[],"categories_nodes":[],"categories_segments":[],"categories_sizes":[],"default_left":[0,0,0,0,0,0,0,0,0,0,0,0,0,0,0,0,0,0,0,0,0,0,0,0,0,0,0,0,0,0,0,0,0,0,0,0,0,0,0,0,0,0,0,0,0,0,0,0,0,0,0,0,0,0,0,0,0,0,0,0,0,0,0,0,0,0,0,0,0,0,0,0,0,0,0,0,0,0,0,0,0,0,0,0,0,0,0,0,0,0,0,0,0,0,0,0,0,0,0,0,0,0,0,0,0,0,0,0,0,0,0,0,0,0,0,0,0,0,0,0,0,0,0,0,0,0,0,0,0,0,0,0,0,0,0,0,0,0,0,0,0,0,0,0,0,0,0,0,0,0,0,0,0,0,0,0,0,0,0,0,0,0,0,0,0,0,0,0,0,0,0,0,0,0,0,0,0,0,0,0,0,0,0,0,0,0,0,0,0,0,0,0,0,0,0,0,0,0,0,0,0,0,0,0,0,0,0,0,0,0,0,0,0,0,0,0,0,0,0,0,0,0,0,0,0,0,0,0,0,0,0,0,0,0,0,0,0,0,0,0,0],"id":0,"left_children":[1,3,5,7,9,11,13,15,17,19,21,23,25,27,29,31,33,35,37,39,41,43,45,-1,47,49,51,-1,53,-1,-1,55,57,59,61,63,65,67,69,71,73,75,77,79,-1,81,-1,-1,-1,-1,83,-1,-1,-1,-1,85,87,89,91,-1,93,-1,-1,-1,95,97,99,101,103,105,-1,107,109,111,-1,113,115,117,119,121,-1,123,125,-1,127,129,131,133,135,137,139,141,143,-1,-1,-1,-1,-1,-1,145,-1,147,149,151,153,-1,155,-1,157,159,161,-1,-1,163,165,-1,167,169,171,173,-1,175,-1,-1,-1,177,-1,-1,-1,179,181,183,185,187,189,191,-1,193,195,197,199,-1,201,-1,203,205,-1,-1,207,-1,209,211,213,215,217,-1,-1,219,-1,221,223,-1,-1,225,227,-1,-1,229,231,-1,-1,-1,233,-1,-1,235,-1,237,239,-1,-1,-1,-1,-1,-1,-1,-1,-1,-1,-1,-1,-1,-1,-1,-1,-1,-1,-1,-1,-1,-1,-1,-1,-1,-1,-1,-1,-1,-1,-1,-1,-1,-1,-1,-1,-1,-1,-1,-1,-1,-1,-1,-1,-1,-1,-1,-1,-1,-1,-1,-1,-1,-1,-1,-1,-1,-1,-1,-1,-1,-1],"loss_changes":[3.2416596E4,9.015367E3,6.3627734E2,3.9128115E3,1.007313E3,1.6101404E2,1.8260352E2,6.345039E2,1.2408339E3,2.0034364E2,1.3210327E2,7.232575E1,4.4500916E1,1.5347656E1,4.3546032E1,1.088749E3,9.852197E1,6.603091E2,3.2907654E2,1.2150578E2,1.0200873E2,3.9045883E1,3.767041E1,0E0,1.3444313E1,1.197435E1,5.597704E0,0E0,7.654542E-1,0E0,0E0,3.9740137E2,2.1747049E2,7.9570312E0,8.44761E1,8.826062E1,4.1281076E2,3.8969492E2,1.5442139E1,6.513379E1,2.5802235E1,1.03346375E2,6.555736E1,4.1714563E0,0E0,4.739502E0,0E0,0E0,0E0,0E0,5.9272003E0,0E0,0E0,0E0,0E0,8.531533E2,2.7773926E1,1.8877205E2,6.909047E1,0E0,3.9623494E0,0E0,0E0,0E0,1.5829512E1,3.1302734E1,7.77214E1,2.7931802E2,8.056605E1,9.624756E0,0E0,3.7569126E1,7.598212E1,1.2230995E1,0E0,4.1425873E1,1.5056501E1,5.8064194E0,1.1091839E1,3.742632E0,0E0,4.043026E0,2.8918457E0,0E0,9.336031E-1,3.2033496E2,2.7435513E2,7.4472656E0,2.303187E1,1.9840141E1,5.0515244E1,8.5441605E1,8.077789E0,0E0,0E0,0E0,0E0,0E0,0E0,3.2971344E0,0E0,3.1174282E1,2.5289124E1,7.9763214E1,1.5170644E1,0E0,2.1908174E0,0E0,1.7557106E0,3.0594055E1,5.862665E0,0E0,0E0,3.8582397E1,5.7018056E0,0E0,7.3021145E0,2.0266733E1,5.59803E-1,3.7084188E0,0E0,3.5202656E0,0E0,0E0,0E0,6.54689E1,0E0,0E0,0E0,1.7331311E2,3.9636328E2,9.377205E0,6.0489258E1,5.107422E-1,5.1775584E0,3.9536476E-1,0E0,3.3470306E0,3.4460518E0,1.5553696E1,2.0577042E1,0E0,1.2650308E2,0E0,1.3421958E1,2.9294088E0,0E0,0E0,1.7346703E1,0E0,3.7898903E1,4.7326263E1,1.0234232E1,4.3417106E0,1.8238785E1,0E0,0E0,2.9744406E0,0E0,2.07417E1,7.61114E0,0E0,0E0,6.9388016E1,1.5535553E1,0E0,0E0,2.955231E0,4.893679E0,0E0,0E0,0E0,7.654542E-1,0E0,0E0,5.591409E0,0E0,2.3492615E1,6.7766943E0,0E0,0E0,0E0,0E0,0E0,0E0,0E0,0E0,0E0,0E0,0E0,0E0,0E0,0E0,0E0,0E0,0E0,0E0,0E0,0E0,0E0,0E0,0E0,0E0,0E0,0E0,0E0,0E0,0E0,0E0,0E0,0E0,0E0,0E0,0E0,0E0,0E0,0E0,0E0,0E0,0E0,0E0,0E0,0E0,0E0,0E0,0E0,0E0,0E0,0E0,0E0,0E0,0E0,0E0,0E0,0E0,0E0,0E0,0E0,0E0,0E0,0E0],"parents":[2147483647,0,0,1,1,2,2,3,3,4,4,5,5,6,6,7,7,8,8,9,9,10,10,11,11,12,12,13,13,14,14,15,15,16,16,17,17,18,18,19,19,20,20,21,21,22,22,24,24,25,25,26,26,28,28,31,31,32,32,33,33,34,34,35,35,36,36,37,37,38,38,39,39,40,40,41,41,42,42,43,43,45,45,50,50,55,55,56,56,57,57,58,58,60,60,64,64,65,65,66,66,67,67,68,68,69,69,71,71,72,72,73,73,75,75,76,76,77,77,78,78,79,79,81,81,82,82,84,84,85,85,86,86,87,87,88,88,89,89,90,90,91,91,92,92,99,99,101,101,102,102,103,103,104,104,106,106,108,108,109,109,110,110,113,113,114,114,116,116,117,117,118,118,119,119,121,121,125,125,129,129,130,130,131,131,132,132,133,133,134,134,135,135,137,137,138,138,139,139,140,140,142,142,144,144,145,145,148,148,150,150,151,151,152,152,153,153,154,154,157,157,159,159,160,160,163,163,164,164,167,167,168,168,172,172,175,175,177,177,178,178],"right_children":[2,4,6,8,10,12,14,16,18,20,22,24,26,28,30,32,34,36,38,40,42,44,46,-1,48,50,52,-1,54,-1,-1,56,58,60,62,64,66,68,70,72,74,76,78,80,-1,82,-1,-1,-1,-1,84,-1,-1,-1,-1,86,88,90,92,-1,94,-1,-1,-1,96,98,100,102,104,106,-1,108,110,112,-1,114,116,118,120,122,-1,124,126,-1,128,130,132,134,136,138,140,142,144,-1,-1,-1,-1,-1,-1,146,-1,148,150,152,154,-1,156,-1,158,160,162,-1,-1,164,166,-1,168,170,172,174,-1,176,-1,-1,-1,178,-1,-1,-1,180,182,184,186,188,190,192,-1,194,196,198,200,-1,202,-1,204,206,-1,-1,208,-1,210,212,214,216,218,-1,-1,220,-1,222,224,-1,-1,226,228,-1,-1,230,232,-1,-1,-1,234,-1,-1,236,-1,238,240,-1,-1,-1,-1,-1,-1,-1,-1,-1,-1,-1,-1,-1,-1,-1,-1,-1,-1,-1,-1,-1,-1,-1,-1,-1,-1,-1,-1,-1,-1,-1,-1,-1,-1,-1,-1,-1,-1,-1,-1,-1,-1,-1,-1,-1,-1,-1,-1,-1,-1,-1,-1,-1,-1,-1,-1,-1,-1,-1,-1,-1,-1],"split_conditions":[8E0,9.090909E-2,5E-2,5.4545455E-2,1.2E1,4E0,6E-1,1.32093E5,3.4375E-1,6E0,2E-2,8.571428E0,4.5454547E-2,5.263158E-2,1.5625E-2,2E0,1.1111112E0,1.1494253E-2,9.090909E-2,6E0,2.6E0,1.89104E5,7.058824E-1,2.899817E-1,1.1E1,9.9175256E-1,4.3333335E0,-4.944751E-1,2E1,3.705011E-1,-2.4840018E-1,1E0,2.75E-1,2E-1,1E0,9.059702E0,1E0,2.742108E-1,9E-1,5.84375E0,1.04591E5,8.2257E4,9.154929E-2,1.3849002E0,-3.246843E-1,5.633007E-1,1.4403737E-1,3.7982833E-2,-4.297985E-1,-5.3159997E-2,8.450704E-2,5.7941016E-2,-2.3629406E-1,7.944062E-2,-3.408967E-2,1.1111112E0,6.666667E-1,4E0,5.806664E-1,4.9342123E-1,1.7E1,-3.5471797E-1,3.705011E-1,4.797492E-1,8.3676E4,6E0,7.6415384E-1,7.8125E-1,9.944903E-1,4.22296E5,1.9406045E-2,2E0,1.1494253E-2,5.84375E0,1.6386427E-1,1.0822784E1,8E0,9.1932654E-1,5.6E0,1.105E1,-5.3159997E-2,1.1494253E-2,1.5E1,4.3826574E-1,1E1,6.529E3,2E-2,1.4238935E0,2E0,7.9454E4,5E0,1.6421E4,5.3846157E-1,-8.696133E-2,1.6386427E-1,-2.9532048E-1,1.4403737E-1,9.108892E-2,-4.6160117E-1,6.0625E0,-3.0267072E-1,9.256E3,5E-1,5E0,1.2820514E-1,-4.8226124E-1,2.010582E-1,2.0838878E-1,2.62E3,3.4375E-1,3E0,3.7982833E-2,-4.0783018E-1,2E-2,2E0,2.9543114E-1,2E-2,4.857143E0,5.076923E0,5.2515E4,-3.5079017E-1,4.651163E-1,-3.408967E-2,7.944062E-2,-1.733575E-1,5.076923E0,-4.809737E-1,7.944062E-2,-5.3159997E-2,3.712E3,7.894737E-1,5.074627E-1,1.7073171E-1,1.47E3,2.208E3,8.826E3,-2.1576843E-1,5E0,1.2380642E-1,1.1111111E-1,5.625E-1,3.3127227E-1,3.75E-1,-4.2677397E-1,5.555556E-1,8.826E3,3.7042576E-1,-1.9176081E-1,7.2727275E0,-4.5948458E-1,1.4101E4,1.2547051E-3,6.097561E-2,1.0666667E1,4E0,-1.15996644E-1,7.944062E-2,1.598E3,-3.4874484E-1,1.1588566E0,1.8648E4,-2.5027484E-1,3.7982833E-2,6E0,1E-1,2.600099E-1,-5.3159997E-2,1E1,5E0,2.2652361E-1,-2.229579E-1,2.9088667E-1,2.25E0,1.2536244E-1,-1.15996644E-1,5.076923E0,2.71754E-1,5.6666665E0,6.8358E4,3.2681215E-1,1.5202694E-1,2.6980424E-1,4.1505787E-1,1.06971115E-2,3.3023572E-1,-3.9865488E-1,-7.858515E-2,3.6893013E-1,4.8531663E-1,2.3364386E-1,-1.4868005E-2,2.072027E-3,2.8643727E-1,-4.0408563E-2,-4.1614056E-1,-7.072687E-2,1.6386427E-1,4.4537485E-1,-7.072687E-2,-1.367529E-1,2.0873018E-1,-4.251673E-1,2.013169E-1,-2.54044E-1,1.6386427E-1,-5.3159997E-2,1.4649333E-1,-1.0200944E-1,3.9076164E-1,-3.6308742E-1,-0E0,3.816751E-1,-2.229579E-1,7.944062E-2,-3.246843E-1,-7.072687E-2,1.8488672E-1,1.077419E-1,-3.2832557E-1,-1.4120758E-1,7.944062E-2,3.9185157E-1,-1.15996644E-1,1.0158497E-1,-1.9176081E-1,-2.856946E-1,1.1237713E-1,-4.3856123E-1,5.7941016E-2,-3.408967E-2,1.8488672E-1,3.7982833E-2,-2.3629406E-1,-3.408967E-2,7.944062E-2,1.3464798E-1,-1.2903132E-1,-3.793592E-2,-4.5858607E-1,-8.696133E-2,2.207948E-1],"split_indices":[23,16,15,3,0,18,14,21,14,18,14,22,16,10,3,23,15,13,15,0,15,21,14,0,0,8,22,0,0,0,0,13,15,6,13,22,13,19,14,22,21,21,14,19,0,19,0,0,0,0,3,0,0,0,0,15,6,18,19,0,0,0,0,0,21,0,19,8,19,21,0,0,13,22,0,22,0,19,22,22,0,13,0,0,0,21,14,19,0,21,18,21,14,0,0,0,0,0,0,22,0,21,3,18,3,0,13,0,21,14,23,0,0,14,23,0,14,22,15,21,0,13,0,0,0,15,0,0,0,21,14,13,14,21,21,21,0,0,19,6,14,0,14,0,15,21,0,0,22,0,21,9,3,22,0,0,0,21,0,19,21,0,0,0,6,0,0,0,22,0,0,0,16,0,0,15,0,22,21,0,0,0,0,0,0,0,0,0,0,0,0,0,0,0,0,0,0,0,0,0,0,0,0,0,0,0,0,0,0,0,0,0,0,0,0,0,0,0,0,0,0,0,0,0,0,0,0,0,0,0,0,0,0,0,0,0,0,0,0,0,0],"split_type":[0,0,0,0,0,0,0,0,0,0,0,0,0,0,0,0,0,0,0,0,0,0,0,0,0,0,0,0,0,0,0,0,0,0,0,0,0,0,0,0,0,0,0,0,0,0,0,0,0,0,0,0,0,0,0,0,0,0,0,0,0,0,0,0,0,0,0,0,0,0,0,0,0,0,0,0,0,0,0,0,0,0,0,0,0,0,0,0,0,0,0,0,0,0,0,0,0,0,0,0,0,0,0,0,0,0,0,0,0,0,0,0,0,0,0,0,0,0,0,0,0,0,0,0,0,0,0,0,0,0,0,0,0,0,0,0,0,0,0,0,0,0,0,0,0,0,0,0,0,0,0,0,0,0,0,0,0,0,0,0,0,0,0,0,0,0,0,0,0,0,0,0,0,0,0,0,0,0,0,0,0,0,0,0,0,0,0,0,0,0,0,0,0,0,0,0,0,0,0,0,0,0,0,0,0,0,0,0,0,0,0,0,0,0,0,0,0,0,0,0,0,0,0,0,0,0,0,0,0,0,0,0,0,0,0,0,0,0,0,0,0],"sum_hessian":[1.927387E4,1.3253539E4,6.020329E3,1.1532224E4,1.7213153E3,1.12784744E2,5.9075444E3,1.0231872E4,1.3003517E3,5.7871655E2,1.1425988E3,4.479068E1,6.7994064E1,5.8852266E3,2.2317797E1,8.44705E3,1.784822E3,4.8417374E2,8.16178E2,2.1370128E2,3.6501526E2,3.9081356E1,1.1035173E3,8.158898E0,3.663178E1,6.061229E1,7.3817797E0,5.8825947E3,2.6317797E0,1.6317797E1,6E0,8.103126E3,3.4392416E2,1.7545043E3,3.0317797E1,2.8049365E2,2.0368008E2,4.5390085E2,3.6227713E2,1.8330594E2,3.039534E1,2.8932544E2,7.5689835E1,2.8331356E1,1.075E1,1.1000038E3,3.5135593E0,2.1317797E0,3.45E1,1.25E0,5.936229E1,1.8817797E0,5.5E0,1.6317797E0,1E0,6.859727E3,1.2433987E3,1.3623433E2,2.0768983E2,1.7494907E3,5.0135593E0,1.4E1,1.6317797E1,2.6848007E2,1.2013559E1,1.1614534E2,8.7534744E1,3.057305E2,1.4817033E2,3.5989532E2,2.3817797E0,2.7290678E1,1.5601526E2,2.7131779E1,3.2635593E0,2.569805E2,3.2344917E1,5.617627E1,1.951356E1,2.7081356E1,1.25E0,5.1317797E0,1.0948721E3,5.6480507E1,2.8817797E0,6.6186245E3,2.4110254E2,1.2257263E3,1.7672459E1,3.739534E1,9.883898E1,9.753093E1,1.101589E2,1.75E0,3.2635593E0,8.5E0,3.5135593E0,4.2635593E0,1.1188178E2,7.8534744E1,9E0,4.0135593E1,2.655949E2,1.1662966E2,3.1540678E1,3.5601355E2,3.8817797E0,9.658898E0,1.7631779E1,1.412517E2,1.4763559E1,2.1317797E0,2.5E1,2.4920338E2,7.7771187E0,1.8317797E1,1.4027119E1,1.6540678E1,3.9635593E1,6.0135593E0,1.35E1,2.6081356E1,1E0,1.6317797E0,3.5E0,1.2593602E2,9.6893604E2,1.6317797E0,1.25E0,1.4875017E3,5.131123E3,6.158517E1,1.7951738E2,1.2124355E3,1.3290678E1,1.2922458E1,4.75E0,3.263178E1,4.7635593E0,6.6139404E1,3.2699577E1,1.7317797E1,8.0213135E1,1.0064534E2,9.513559E0,9.777119E0,6.875763E1,4E0,3.6135593E1,1.8839534E2,7.719958E1,1.0424788E2,1.238178E1,6.895339E0,2.464534E1,2.25E0,1.6317797E0,4.3817797E0,1.325E1,1.2772458E2,1.3527119E1,1.263178E1,2.1317797E0,1.5305804E2,9.614534E1,6.5271187E0,1.25E0,6.395339E0,7.6317797E0,1.1540678E1,5E0,3.7003815E1,2.6317797E0,3.7635593E0,2.25E0,1.1277119E1,1.4804237E1,1.14777115E2,1.1158898E1,6.286695E2,8.588322E2,1.9379602E3,3.1931628E3,8.895339E0,5.268983E1,1.1979068E2,5.9726696E1,1.10156784E2,1.1022788E3,9.158898E0,4.1317797E0,2.6317797E0,1.0290678E1,4.6317797E0,2.8E1,1.5E0,3.2635593E0,6.4639404E1,1.5E0,1.614534E1,1.6554237E1,5.413178E1,2.6081356E1,6.25E0,3.2635593E0,1.25E0,8.527119E0,2E0,3.4135593E1,5.114534E1,2.6054237E1,9.924788E1,5E0,1.6317797E0,1.075E1,1.5E0,5.395339E0,4.0135593E0,2.0631779E1,2.75E0,1.6317797E0,1.2547458E2,2.25E0,9.527119E0,4E0,1.2247669E2,3.0581356E1,9.426356E1,1.8817797E0,1E0,5.395339E0,2.1317797E0,5.5E0,1E0,1.6317797E0,8.777119E0,2.5E0,1.1645339E1,1.0313178E2,1.75E0,9.408898E0],"tree_param":{"num_deleted":"0","num_feature":"24","num_nodes":"241","size_leaf_vector":"1"}},{"base_weights":[3.5552314E-4,6.86999E-1,-1.54575E0,9.351973E-1,-9.8636127E-1,-1.5870302E0,1.3181137E0,7.0694685E-1,1.464993E0,-1.2825526E-1,-1.4299873E0,1.3645028E-1,-1.5908813E0,4.0423864E-1,-2.2353944E-1,1.0419055E0,-5.4843974E-1,-9.329366E-1,1.477303E0,8.20181E-1,-4.068774E-1,-0E0,-1.4815873E0,-1.79355E-1,2.323662E-1,-1.5947924E0,-2.5021654E-1,1.176388E0,7.0623916E-1,9.47253E-1,-7.93582E-1,3.941158E-2,-2.8800067E-1,1.4976647E0,5.3730303E-1,3.3549884E-1,-1.5822044E-1,-9.021458E-1,-1.606993E-1,5.380028E-1,-2.85014E-1,-1.4970548E0,1.4738455E-1,5.294338E-2,-3.9797282E-1,2.4408399E-1,-2.671252E-1,8.792978E-1,1.3367753E0,3.078272E-1,1.3370278E0,-2.4386491E-1,1.1747986E0,-1.2608141E0,2.6307446E-1,8.101945E-1,1.5142204E0,-2.738589E-1,1.3056027E0,-9.2852944E-1,2.808685E-1,-1.2357045E0,2.190511E-1,3.2336766E-1,-6.770436E-1,9.733402E-1,-3.0717698E-1,-1.0954694E0,-3.8525942E-1,3.5173053E-1,6.5002257E-1,1.2870237E0,1.5717393E0,-6.933815E-1,9.5985305E-1,5.529512E-1,1.4069906E0,-1.1926214E0,5.7530814E-1,3.3949652E-1,6.108257E-1,-1.3888958E0,7.624771E-1,-1.4399056E0,8.843992E-1,1.4630021E0,-3.736302E-1,1.5163368E0,-8.1436835E-2,2.9613188E-1,-2.9068038E-1,3.595991E-1,-6.864034E-2,-3.0269426E-1,9.7775236E-2,-5.629342E-2,6.196943E-1,-1.4054979E0,5.072129E-1,2.7082524E-1,-6.5398383E-1,6.7608416E-1,-1.8212704E-1,-7.9174125E-1,4.6254838E-1,2.6385775E-1,-0E0,5.9177123E-2,-2.0409806E-1,-1.4095658E0,3.9284405E-1,7.404608E-1,-4.0609428E-1,1.310977E0,3.265554E-1,-1.8883586E-1,1.5915924E0,-1.1915473E0,1.1286749E0,4.3092543E-1,1.5888503E0,8.6187196E-1,-7.031729E-1,-1.4021994E-1,3.544219E-1,4.4658553E-2,-3.5726142E-1,-1.1501145E-1,8.6262923E-1,-9.0278625E-2,1.0451174E0,-1.5564272E0,-6.293183E-1,1.2694737E0,-2.7176824E-1,8.925651E-2,-1.52253E0,9.921148E-1,-7.984107E-1,3.72222E-1,7.3944265E-3,1.5712805E0,1.391318E0,-6.186588E-1,7.5576854E-1,-6.774807E-1,1.8114246E-1,9.4101673E-1,-1.00763485E-1,-2.0106441E-1,-3.893173E-1,-7.746097E-2,2.1159616E-1,6.0045566E-2,-2.6983193E-1,7.787307E-1,-4.2875737E-1,-1.1032542E0,1.9073077E-1,-9.6166E-1,2.2009964E-1,2.1023156E-1,-1.0414722E-1,-3.8619986E-1,-0E0,-5.373291E-1,1.0042533E0,1.3658543E-1,3.638394E-1,2.4303888E-1,-2.3077337E-1,3.399125E-1,2.2282448E-1,-1.267573E-1,2.2884062E-1,6.286693E-2,-1.542209E-1,4.038823E-1,1.8289654E-1,-4.9744695E-1,-1.7216459E-2,-7.596172E-2,2.952791E-1,-1.02565035E-1,1.7902932E-1,4.0833902E-1,-9.555043E-2,3.3112282E-1,-3.972979E-2,-2.4490175E-1,5.4289848E-2,2.5247183E-1,2.1111434E-2,1.5595476E-1,-2.318E-1,2.9975596E-1,-1.0542778E-1,-4.010255E-1,1.5034272E-1,2.145272E-1,-3.2072058E-1,3.6419064E-1,-0E0,-4.0181178E-1,-0E0,1.1318857E-1,3.4095442E-1,-3.0193576E-1,9.4943106E-2,3.3917338E-1,4.0183944E-1,3.6036736E-1,1.7496577E-1,2.4937617E-2,-2.4085431E-1,2.3349248E-1,-6.7131236E-2,-0E0,-2.1830156E-1,-0E0,2.605481E-1,8.558676E-2,-2.217465E-1,-1.6833529E-2,9.7775236E-2,2.868933E-1,6.635242E-2,5.5642925E-2,-2.0134284E-1,-3.255912E-1,-0E0,1.9599248E-1,-1.568869E-1,-2.5748363E-1,1.04079485E-1,1.8651159E-1,-1.942354E-1,1.1057912E-1,-1.3326867E-1,-2.295026E-1,8.183254E-2,-8.9415394E-2,3.318225E-1],"categories":[],"categories_nodes":[],"categories_segments":[],"categories_sizes":[],"default_left":[0,0,0,0,0,0,0,0,0,0,0,0,0,0,0,0,0,0,0,0,0,0,0,0,0,0,0,0,0,0,0,0,0,0,0,0,0,0,0,0,0,0,0,0,0,0,0,0,0,0,0,0,0,0,0,0,0,0,0,0,0,0,0,0,0,0,0,0,0,0,0,0,0,0,0,0,0,0,0,0,0,0,0,0,0,0,0,0,0,0,0,0,0,0,0,0,0,0,0,0,0,0,0,0,0,0,0,0,0,0,0,0,0,0,0,0,0,0,0,0,0,0,0,0,0,0,0,0,0,0,0,0,0,0,0,0,0,0,0,0,0,0,0,0,0,0,0,0,0,0,0,0,0,0,0,0,0,0,0,0,0,0,0,0,0,0,0,0,0,0,0,0,0,0,0,0,0,0,0,0,0,0,0,0,0,0,0,0,0,0,0,0,0,0,0,0,0,0,0,0,0,0,0,0,0,0,0,0,0,0,0,0,0,0,0,0,0,0,0,0,0,0,0,0,0,0,0,0,0,0,0,0,0,0,0,0,0,0,0,0,0,0,0],"id":1,"left_children":[1,3,5,7,9,11,13,15,17,19,21,23,25,-1,-1,27,29,31,33,35,37,39,41,-1,-1,43,45,47,49,51,53,-1,-1,55,57,-1,59,61,63,65,-1,67,-1,-1,-1,-1,-1,69,71,73,75,77,79,81,83,85,87,89,91,93,95,97,99,101,103,105,107,109,-1,-1,111,113,115,117,119,121,123,125,127,-1,129,131,133,135,137,139,-1,141,-1,143,-1,-1,-1,-1,-1,145,147,149,151,-1,153,155,157,159,161,-1,-1,-1,-1,163,165,167,169,171,173,175,177,179,181,183,185,187,189,-1,-1,-1,-1,-1,191,193,195,197,199,201,-1,-1,203,205,207,-1,-1,209,211,213,215,217,-1,219,-1,221,-1,-1,-1,223,-1,225,227,229,231,233,235,-1,-1,-1,237,239,241,-1,-1,-1,-1,-1,-1,-1,-1,-1,-1,-1,-1,-1,-1,-1,-1,-1,-1,-1,-1,-1,-1,-1,-1,-1,-1,-1,-1,-1,-1,-1,-1,-1,-1,-1,-1,-1,-1,-1,-1,-1,-1,-1,-1,-1,-1,-1,-1,-1,-1,-1,-1,-1,-1,-1,-1,-1,-1,-1,-1,-1,-1,-1,-1,-1,-1,-1,-1,-1,-1,-1,-1,-1,-1,-1,-1],"loss_changes":[1.9593807E4,5.3129683E3,6.814385E2,1.33875E3,6.2637915E2,3.99541E1,6.3460663E1,3.2800679E3,1.0610693E2,1.5160493E2,8.0068115E1,1.4552377E1,2.5140625E1,0E0,0E0,2.7149414E2,6.061099E2,6.814699E0,5.742627E1,6.920134E1,5.2201645E1,2.9401203E1,3.903418E1,0E0,0E0,1.2415039E1,2.8271975E1,2.0052051E2,4.4207483E2,6.564929E1,7.0164923E2,0E0,0E0,2.8336426E1,5.2479156E1,0E0,1.8583479E1,5.671315E1,7.755505E1,1.4143258E1,0E0,8.623291E0,0E0,0E0,0E0,0E0,0E0,1.8222571E2,1.9908203E1,7.185361E2,3.142395E1,3.556413E1,1.4347839E1,2.606565E2,4.681245E2,1.4424794E2,1.6188965E1,2.4002394E1,1.2454002E1,1.0774969E1,4.715763E0,3.8034515E1,3.1584124E1,2.9567192E1,2.1778969E1,1.1237164E0,5.460399E0,6.4730865E1,0E0,0E0,1.06506256E2,5.049292E1,1.9542236E1,4.0056335E2,2.1584766E2,2.8524014E1,2.220581E1,9.668209E0,9.65615E0,0E0,1.9690132E1,1.105791E2,6.428763E1,2.1595505E1,6.2773026E1,9.962921E-1,0E0,7.6367188E0,0E0,1.4449891E1,0E0,0E0,0E0,0E0,0E0,1.1872271E1,8.761261E0,1.6041779E1,5.5438614E0,0E0,7.8119507E0,1.2944115E1,2.5410582E1,2.5823502E1,7.51122E0,0E0,0E0,0E0,0E0,2.2643234E1,1.7844292E1,1.3389276E2,6.774524E1,4.147339E1,3.4988937E1,2.8776875E0,2.5223389E0,3.0668094E2,1.0340263E1,9.107323E1,3.331775E1,2.881538E1,5.757369E0,0E0,0E0,0E0,0E0,0E0,7.8806305E-1,1.8863556E1,1.2168827E1,8.985303E1,1.78897E2,1.3314499E1,0E0,0E0,1.6541107E1,5.6813477E1,1.3676311E1,0E0,0E0,4.0341797E0,3.0115723E1,4.3384356E0,6.1054125E0,1.8134537E0,0E0,6.885443E-1,0E0,9.044147E0,0E0,0E0,0E0,9.9332625E-1,0E0,1.4097839E1,4.1164246E0,5.9250317E0,2.7698677E1,1.4625999E1,1.4863836E1,0E0,0E0,0E0,4.4154425E0,6.350423E0,1.1493536E1,0E0,0E0,0E0,0E0,0E0,0E0,0E0,0E0,0E0,0E0,0E0,0E0,0E0,0E0,0E0,0E0,0E0,0E0,0E0,0E0,0E0,0E0,0E0,0E0,0E0,0E0,0E0,0E0,0E0,0E0,0E0,0E0,0E0,0E0,0E0,0E0,0E0,0E0,0E0,0E0,0E0,0E0,0E0,0E0,0E0,0E0,0E0,0E0,0E0,0E0,0E0,0E0,0E0,0E0,0E0,0E0,0E0,0E0,0E0,0E0,0E0,0E0,0E0,0E0,0E0,0E0,0E0,0E0,0E0,0E0,0E0,0E0,0E0,0E0,0E0,0E0],"parents":[2147483647,0,0,1,1,2,2,3,3,4,4,5,5,6,6,7,7,8,8,9,9,10,10,11,11,12,12,15,15,16,16,17,17,18,18,19,19,20,20,21,21,22,22,25,25,26,26,27,27,28,28,29,29,30,30,33,33,34,34,36,36,37,37,38,38,39,39,41,41,47,47,48,48,49,49,50,50,51,51,52,52,53,53,54,54,55,55,56,56,57,57,58,58,59,59,60,60,61,61,62,62,63,63,64,64,65,65,66,66,67,67,70,70,71,71,72,72,73,73,74,74,75,75,76,76,77,77,78,78,80,80,81,81,82,82,83,83,84,84,85,85,87,87,89,89,95,95,96,96,97,97,98,98,100,100,101,101,102,102,103,103,104,104,109,109,110,110,111,111,112,112,113,113,114,114,115,115,116,116,117,117,118,118,119,119,120,120,121,121,122,122,128,128,129,129,130,130,131,131,132,132,133,133,136,136,137,137,138,138,141,141,142,142,143,143,144,144,145,145,147,147,149,149,153,153,155,155,156,156,157,157,158,158,159,159,160,160,164,164,165,165,166,166],"right_children":[2,4,6,8,10,12,14,16,18,20,22,24,26,-1,-1,28,30,32,34,36,38,40,42,-1,-1,44,46,48,50,52,54,-1,-1,56,58,-1,60,62,64,66,-1,68,-1,-1,-1,-1,-1,70,72,74,76,78,80,82,84,86,88,90,92,94,96,98,100,102,104,106,108,110,-1,-1,112,114,116,118,120,122,124,126,128,-1,130,132,134,136,138,140,-1,142,-1,144,-1,-1,-1,-1,-1,146,148,150,152,-1,154,156,158,160,162,-1,-1,-1,-1,164,166,168,170,172,174,176,178,180,182,184,186,188,190,-1,-1,-1,-1,-1,192,194,196,198,200,202,-1,-1,204,206,208,-1,-1,210,212,214,216,218,-1,220,-1,222,-1,-1,-1,224,-1,226,228,230,232,234,236,-1,-1,-1,238,240,242,-1,-1,-1,-1,-1,-1,-1,-1,-1,-1,-1,-1,-1,-1,-1,-1,-1,-1,-1,-1,-1,-1,-1,-1,-1,-1,-1,-1,-1,-1,-1,-1,-1,-1,-1,-1,-1,-1,-1,-1,-1,-1,-1,-1,-1,-1,-1,-1,-1,-1,-1,-1,-1,-1,-1,-1,-1,-1,-1,-1,-1,-1,-1,-1,-1,-1,-1,-1,-1,-1,-1,-1,-1,-1,-1,-1],"split_conditions":[8E0,9.090909E-2,8.674E3,8.93E2,1.2E1,1.7792E4,2.1E1,4E0,9.78022E-1,4.2234376E-1,2E-2,3.3E2,6.665E3,4.0423864E-1,-2.2353944E-1,2E0,2E-2,9.6E2,6.666667E-2,2E0,8.837151E-1,7.142857E0,2.049E3,-1.79355E-1,2.323662E-1,1.8181819E-1,3.1E1,6.529E3,6.7E1,9.246575E-1,7.5E-1,3.941158E-2,-2.8800067E-1,6.0625E0,1.976E3,3.3549884E-1,4.3333335E0,2.2727273E-1,1.1588566E0,1.9E1,-2.85014E-1,1.5E1,1.4738455E-1,5.294338E-2,-3.9797282E-1,2.4408399E-1,-2.671252E-1,2E-2,1.2380642E-1,1.2380642E-1,6.0625E0,6.5912E4,6E0,2.6666667E0,2.3188E4,5.3846157E-1,5.1428574E-1,2E0,2.4E1,3.7799E4,5.9166665E0,8.3676E4,5.6E0,6E0,5.074627E-1,1.29297E5,2.5E-2,1.01346E5,-3.8525942E-1,3.5173053E-1,5.38E3,1E0,5.3333336E-1,3.372093E-1,1E0,7.058824E-1,7.2727275E-1,1.1494253E-2,8.5714287E-1,3.3949652E-1,1.38E2,2.81E2,1E1,6.5E-1,9.278575E-1,5.074627E-1,-3.736302E-1,9.090909E-2,-8.1436835E-2,1.1264269E0,-2.9068038E-1,3.595991E-1,-6.864034E-2,-3.0269426E-1,9.7775236E-2,2.8787878E-1,1.1494253E-2,2.5E-2,5.3935987E-1,2.7082524E-1,1.1111112E0,8.714286E0,7.368421E0,8.4279E4,2E-2,2.6385775E-1,-0E0,5.9177123E-2,-2.0409806E-1,3.8636363E-1,2.125E0,1.4029851E1,1.105E1,2.1158E4,1.3471E4,1.8181819E-1,4.877E4,7.058824E-1,1.8181819E-1,8.385E3,1.1494253E-2,6.529E3,1.8112626E0,-1.4021994E-1,3.544219E-1,4.4658553E-2,-3.5726142E-1,-1.1501145E-1,1.3E1,6.56E0,5.4526E4,2.5E-1,7E0,6.76E0,-2.7176824E-1,8.925651E-2,2.244898E-1,1.2380642E-1,1.5384616E-1,3.72222E-1,7.3944265E-3,1.2380642E-1,7.6415384E-1,5.38E3,1.578E3,2.62E3,1.8114246E-1,3E0,-1.00763485E-1,2E0,-3.893173E-1,-7.746097E-2,2.1159616E-1,3.4154E4,-2.6983193E-1,1.0909091E0,6.529E3,3.0444446E0,1E0,4.125E0,3E0,2.1023156E-1,-1.0414722E-1,-3.8619986E-1,6.56E0,4.318182E0,1.0909091E0,1.3658543E-1,3.638394E-1,2.4303888E-1,-2.3077337E-1,3.399125E-1,2.2282448E-1,-1.267573E-1,2.2884062E-1,6.286693E-2,-1.542209E-1,4.038823E-1,1.8289654E-1,-4.9744695E-1,-1.7216459E-2,-7.596172E-2,2.952791E-1,-1.02565035E-1,1.7902932E-1,4.0833902E-1,-9.555043E-2,3.3112282E-1,-3.972979E-2,-2.4490175E-1,5.4289848E-2,2.5247183E-1,2.1111434E-2,1.5595476E-1,-2.318E-1,2.9975596E-1,-1.0542778E-1,-4.010255E-1,1.5034272E-1,2.145272E-1,-3.2072058E-1,3.6419064E-1,-0E0,-4.0181178E-1,-0E0,1.1318857E-1,3.4095442E-1,-3.0193576E-1,9.4943106E-2,3.3917338E-1,4.0183944E-1,3.6036736E-1,1.7496577E-1,2.4937617E-2,-2.4085431E-1,2.3349248E-1,-6.7131236E-2,-0E0,-2.1830156E-1,-0E0,2.605481E-1,8.558676E-2,-2.217465E-1,-1.6833529E-2,9.7775236E-2,2.868933E-1,6.635242E-2,5.5642925E-2,-2.0134284E-1,-3.255912E-1,-0E0,1.9599248E-1,-1.568869E-1,-2.5748363E-1,1.04079485E-1,1.8651159E-1,-1.942354E-1,1.1057912E-1,-1.3326867E-1,-2.295026E-1,8.183254E-2,-8.9415394E-2,3.318225E-1],"split_indices":[23,16,1,1,0,21,23,0,8,19,14,1,1,0,0,1,14,1,17,1,19,17,1,0,0,4,0,21,1,4,14,0,0,22,1,0,22,13,19,1,0,0,0,0,0,0,0,14,19,19,22,21,1,17,21,14,5,23,0,21,22,21,22,1,13,21,17,21,0,0,21,1,4,13,23,14,8,13,6,0,1,1,0,8,19,13,0,15,0,19,0,0,0,0,0,13,13,17,19,0,15,22,22,21,14,0,0,0,0,13,15,22,22,21,21,4,21,14,4,21,13,21,19,0,0,0,0,0,0,22,21,6,0,22,0,0,5,19,17,0,0,19,19,21,1,21,0,0,0,1,0,0,0,21,0,17,21,15,23,15,23,0,0,0,22,16,17,0,0,0,0,0,0,0,0,0,0,0,0,0,0,0,0,0,0,0,0,0,0,0,0,0,0,0,0,0,0,0,0,0,0,0,0,0,0,0,0,0,0,0,0,0,0,0,0,0,0,0,0,0,0,0,0,0,0,0,0,0,0,0,0,0,0,0,0,0,0,0,0,0,0,0,0],"split_type":[0,0,0,0,0,0,0,0,0,0,0,0,0,0,0,0,0,0,0,0,0,0,0,0,0,0,0,0,0,0,0,0,0,0,0,0,0,0,0,0,0,0,0,0,0,0,0,0,0,0,0,0,0,0,0,0,0,0,0,0,0,0,0,0,0,0,0,0,0,0,0,0,0,0,0,0,0,0,0,0,0,0,0,0,0,0,0,0,0,0,0,0,0,0,0,0,0,0,0,0,0,0,0,0,0,0,0,0,0,0,0,0,0,0,0,0,0,0,0,0,0,0,0,0,0,0,0,0,0,0,0,0,0,0,0,0,0,0,0,0,0,0,0,0,0,0,0,0,0,0,0,0,0,0,0,0,0,0,0,0,0,0,0,0,0,0,0,0,0,0,0,0,0,0,0,0,0,0,0,0,0,0,0,0,0,0,0,0,0,0,0,0,0,0,0,0,0,0,0,0,0,0,0,0,0,0,0,0,0,0,0,0,0,0,0,0,0,0,0,0,0,0,0,0,0,0,0,0,0,0,0,0,0,0,0,0,0,0,0,0,0,0,0],"sum_hessian":[1.8447744E4,1.2776859E4,5.6708843E3,1.11290205E4,1.6478389E3,5.5928467E3,7.80376E1,7.787517E3,3.3415037E3,5.6462836E2,1.0832106E3,1.1402436E1,5.5814443E3,7.027203E1,7.7655673E0,6.148715E3,1.6388025E3,1.4718229E1,3.3267854E3,1.2509117E2,4.3953717E2,3.799277E1,1.0452178E3,4.988221E0,6.4142146E0,5.563401E3,1.804369E1,4.378708E3,1.7700068E3,2.2813107E2,1.4106714E3,1.8070498E0,1.291118E1,3.2521875E3,7.4597855E1,8.1024826E1,4.406635E1,1.4003256E2,2.995046E2,2.7487013E1,1.0505757E1,1.039385E3,5.83285E0,1.5558647E0,5.5618447E3,6.266816E0,1.1776874E1,1.5487639E3,2.829944E3,1.090406E3,6.7960077E2,3.568833E1,1.9244273E2,9.78292E2,4.3237936E2,8.386994E1,3.1683176E3,3.7041862E1,3.7555992E1,1.5032741E1,2.9033607E1,1.0836946E2,3.1663103E1,1.5431699E2,1.451876E2,1.8595894E1,8.891119E0,1.252785E2,9.1410645E2,4.579635E2,1.0908004E3,2.3655405E3,4.6440372E2,4.2920178E2,6.612043E2,6.061139E1,6.189894E2,1.6193005E1,1.9495327E1,1.3788582E2,5.4556923E1,9.220358E2,5.62562E1,1.1335984E2,3.1901953E2,6.716787E1,1.6702076E1,3.1661833E3,2.1342762E0,2.3747541E1,1.3294321E1,3.5667915E1,1.8880756E0,1.3433809E1,1.5989305E0,1.4798988E1,1.4234619E1,1.0023174E2,8.137724E0,1.5986076E1,1.5677027E1,9.133168E1,6.2985317E1,1.3421179E2,1.09758215E1,1.6000673E1,2.5952203E0,4.4235816E0,4.467538E0,1.0432502E2,2.0953482E1,1.0071409E3,8.365944E1,2.3050369E3,6.05036E1,4.0440607E0,4.6035965E2,3.388832E2,9.031859E1,3.6464322E2,2.9656107E2,5.0634922E1,9.976466E0,2.4525168E0,6.165368E2,1.8470676E0,1.4345938E1,2.6879678E0,1.680736E1,2.1277082E1,3.327984E1,7.499633E2,1.7207246E2,4.5871582E1,1.0384617E1,3.633238E0,1.097266E2,3.023666E2,1.6652912E1,6.479882E1,2.369047E0,2.1539373E3,1.0122461E3,6.507266E0,1.7240274E1,9.468755E0,5.330234E0,1.2025001E1,2.2096186E0,1.3613602E1,8.661814E1,1.4869046E0,6.650819E0,6.3824353E0,9.294592E0,8.5870476E1,5.461202E0,1.6344349E1,4.664097E1,1.161365E2,1.8075293E1,8.759675E0,2.2161465E0,9.505845E1,9.266568E0,7.763706E0,1.3189775E1,8.0207074E2,2.0507022E2,2.107114E1,6.2588303E1,2.0377866E3,2.6725027E2,2.451732E1,3.598628E1,1.6024402E0,2.4416203E0,4.404005E2,1.9959143E1,1.947417E2,1.441415E2,1.7352103E0,8.8583374E1,9.1060844E1,2.7358237E2,2.9085184E2,5.709229E0,3.4583588E1,1.6051336E1,8.412994E0,1.5634714E0,1.1577297E1,5.2300615E0,1.137713E1,9.899953E0,3.1600555E1,1.679284E0,7.342402E2,1.5723195E1,5.1628857E1,1.204436E2,3.9730415E1,6.1411667E0,1.03849976E2,5.8766255E0,1.2985745E2,1.7250916E2,1.2998114E1,3.6547985E0,3.739766E2,1.7799606E3,9.3272736E2,7.9518745E1,2.1143901E0,4.3928757E0,1.601275E1,1.227525E0,3.3705132E0,6.0982413E0,2.5505786E0,9.474422E0,7.9813657E0,5.6322355E0,4.783505E0,1.5989305E0,4.4935955E1,4.093452E1,1.5707095E0,3.890493E0,1.3765519E1,2.578829E0,2.7988739E1,1.8652227E1,1.12456085E2,3.680413E0,1.3410307E1,4.6649866E0,6.3506794E0,2.9158883E0,6.1325135E0,1.6311926E0,1.7435057E0,1.144627E1],"tree_param":{"num_deleted":"0","num_feature":"24","num_nodes":"243","size_leaf_vector":"1"}},{"base_weights":[2.8990547E-4,5.714785E-1,-1.3482009E0,7.780541E-1,-8.347237E-1,-1.3955826E0,1.4036841E0,5.958294E-1,1.3246511E0,-1.9909403E-1,-1.2915376E0,-1.3976908E0,-0E0,-0E0,3.5883108E-1,9.6220356E-1,1.6240978E-1,1.4475177E-1,1.3408206E0,3.8802385E-1,-7.8818536E-1,2.910931E-1,-1.3184562E0,-1.3988701E0,3.3858668E-2,-1.1815608E-1,4.148588E-1,-2.2776902E-2,6.283429E-2,7.132926E-1,1.1006573E0,-2.4459054E-1,1.3799379E0,3.9064813E-1,-3.9652768E-1,-1.8363649E-1,1.3443333E0,8.29414E-1,-2.6758632E-1,-1.578655E-1,-1.0478919E0,1.855174E-1,-1.3109529E-1,-1.3388877E0,-0E0,-1.3998175E0,4.9897093E-2,1.38203E-1,-0E0,1.1895417E0,5.0456893E-1,1.1459422E0,8.455028E-1,8.662585E-3,-1.2296448E0,1.3923979E0,3.4945667E-1,-2.608138E-1,1.9542612E-1,-2.3155439E-1,7.203348E-2,-1.3169566E-1,3.97398E-2,1.3494861E0,9.17907E-2,2.9235703E-1,9.490316E-1,-1.2284837E0,1.8926208E-1,-6.070722E-1,2.581159E-1,1.896168E-2,-1.2989566E0,-1.04271695E-1,-3.4023967E-1,3.1139624E-1,-2.116644E-1,-2.4578488E-1,-3.4942144E-1,2.2480065E-1,1.2011305E0,3.3018175E-1,3.0244288E-1,1.0768019E0,3.4184906E-1,1.111398E0,-3.5603362E-1,-5.1504755E-1,4.862317E-1,-1.3367577E0,-0E0,3.49514E-1,4.7166753E-1,6.924656E-1,-2.52648E-1,1.4651084E-1,-2.54808E-1,1.3515764E0,3.8565326E-2,-1.4225385E-1,4.9227598E-1,-1.3212734E-1,6.214619E-1,2.4045254E-1,-0E0,-3.367478E-1,-2.1401809E-1,7.440536E-1,-1.5237045E-1,-1.0163214E0,4.6598914E-1,-6.690432E-1,5.936562E-1,-4.7942153E-1,6.6242254E-1,-1.3479447E0,1.4358559E-1,5.9057605E-1,-2.3017123E-1,-1.5782936E-1,8.726211E-2,-8.049984E-2,1.3031247E-1,3.0113512E-1,1.42563665E-2,-3.322796E-2,6.3953644E-1,1.1625246E0,7.509567E-1,1.16293E0,-0E0,2.7626735E-1,-1.3947904E0,1.0058241E0,-8.3548146E-1,1.0072304E0,3.9603636E-2,-1.3675586E0,1.357459E-1,7.576648E-1,-4.5792148E-1,2.0994487E-1,-1.1830712E-1,-0E0,1.9705433E-1,-1.391206E-1,3.0035665E-2,1.1180644E0,1.3734434E0,9.511481E-2,-6.369299E-2,1.8029723E-1,-4.889069E-2,2.9768866E-1,-2.0116593E-1,7.296645E-1,-0E0,-1.5316068E-1,9.346549E-2,2.2515686E-1,-9.3989424E-2,-2.405232E-1,4.6139862E-2,-2.810424E-1,2.82548E-2,-1.0506212E-1,2.1468502E-1,-0E0,-2.1497253E-1,7.860708E-1,-2.4224938E-1,5.4661635E-2,-6.2258875E-1,-1.1136458E-1,9.7711957E-1,-1.3803729E0,7.587914E-2,1.17990546E-1,-4.4707194E-2,-0E0,1.7420748E-1,1.22441165E-1,-4.339771E-2,2.1948542E-1,-5.8589645E-2,2.9326385E-1,5.3975694E-2,1.9932027E-1,-1.2347133E-1,3.0834368E-1,1.3655674E-1,-1.8675306E-1,2.0284364E-1,-4.3080103E-1,3.219962E-2,2.8500405E-1,-1.423277E-1,-3.4347153E-1,-2.2503635E-2,2.7670982E-1,-1.7357208E-1,-2.275183E-1,1.4488523E-1,-3.4981653E-1,9.391354E-2,-0E0,2.3407972E-1,-2.453273E-1,3.1684354E-2,5.2155968E-2,2.8701758E-1,3.4403324E-1,1.6884279E-1,1.20476104E-1,-4.5580298E-2,-0E0,2.0143175E-1,5.6148935E-2,-7.0830785E-2,-1.3133895E-1,7.961588E-2,-6.2484674E-2,7.4478954E-2,2.3524214E-1,-0E0,-1.6692843E-1,8.698381E-2,-1.9327311E-1,5.922643E-2,-0E0,2.7645534E-1,-2.9163996E-2,-3.5179E-1,-4.3459527E-2,5.5254254E-2],"categories":[],"categories_nodes":[],"categories_segments":[],"categories_sizes":[],"default_left":[0,0,0,0,0,0,0,0,0,0,0,0,0,0,0,0,0,0,0,0,0,0,0,0,0,0,0,0,0,0,0,0,0,0,0,0,0,0,0,0,0,0,0,0,0,0,0,0,0,0,0,0,0,0,0,0,0,0,0,0,0,0,0,0,0,0,0,0,0,0,0,0,0,0,0,0,0,0,0,0,0,0,0,0,0,0,0,0,0,0,0,0,0,0,0,0,0,0,0,0,0,0,0,0,0,0,0,0,0,0,0,0,0,0,0,0,0,0,0,0,0,0,0,0,0,0,0,0,0,0,0,0,0,0,0,0,0,0,0,0,0,0,0,0,0,0,0,0,0,0,0,0,0,0,0,0,0,0,0,0,0,0,0,0,0,0,0,0,0,0,0,0,0,0,0,0,0,0,0,0,0,0,0,0,0,0,0,0,0,0,0,0,0,0,0,0,0,0,0,0,0,0,0,0,0,0,0,0,0,0,0,0,0,0,0,0,0,0,0,0,0,0,0,0,0,0,0,0,0,0,0,0,0,0,0],"id":2,"left_children":[1,3,5,7,9,11,13,15,17,19,21,23,25,27,-1,29,31,33,35,37,39,41,43,45,-1,-1,47,-1,-1,49,51,53,55,57,59,61,63,65,67,69,71,-1,-1,73,75,77,-1,-1,-1,79,81,83,85,87,89,91,93,95,-1,-1,-1,-1,-1,97,99,101,103,105,107,109,111,113,115,117,-1,-1,-1,119,-1,121,123,125,-1,127,-1,129,131,133,135,137,139,-1,141,143,145,-1,-1,147,149,-1,151,153,155,-1,-1,-1,157,159,161,163,165,167,169,171,173,175,177,179,-1,-1,-1,-1,-1,-1,-1,181,183,185,187,189,191,-1,193,195,197,199,201,203,-1,205,207,-1,-1,-1,-1,-1,-1,209,211,-1,-1,-1,-1,213,-1,215,217,-1,-1,-1,-1,-1,219,-1,-1,-1,-1,221,-1,223,225,-1,227,-1,229,231,-1,-1,-1,233,-1,-1,-1,-1,-1,-1,-1,-1,-1,-1,-1,-1,-1,-1,-1,-1,-1,-1,-1,-1,-1,-1,-1,-1,-1,-1,-1,-1,-1,-1,-1,-1,-1,-1,-1,-1,-1,-1,-1,-1,-1,-1,-1,-1,-1,-1,-1,-1,-1,-1,-1,-1,-1,-1,-1],"loss_changes":[1.2887585E4,3.4177148E3,6.585752E2,1.01505225E3,4.346117E2,1.3839844E1,2.7095337E0,1.2205305E3,4.607373E1,2.2230836E2,4.0369263E1,1.1276367E1,3.436279E0,4.597966E-1,0E0,1.3772827E2,1.7544025E3,6.201481E0,1.6093262E1,9.472775E1,5.0236465E1,8.757208E0,2.4504517E1,1.0200195E1,0E0,0E0,3.8583386E-1,0E0,0E0,1.4489288E2,2.3737793E1,6.631742E2,6.939209E0,9.851225E0,7.056587E0,1.9455204E0,1.3914551E1,9.647049E0,6.0252247E1,1.9977953E1,6.1886E1,0E0,0E0,2.4109497E1,2.3824444E1,3.1767578E0,0E0,0E0,0E0,2.0549927E0,1.26874115E2,2.4838135E1,1.3845715E2,5.298244E2,7.1233765E1,1.7889404E0,5.1370306E0,1.2840372E1,0E0,0E0,0E0,0E0,0E0,4.9433594E0,5.63176E0,7.163086E0,2.1650848E0,2.1523209E0,1.8831251E1,2.544148E1,1.8708275E1,1.6732937E1,1.5316742E1,1.6276148E1,0E0,0E0,0E0,4.1857066E0,0E0,3.1066499E0,1.357666E0,9.718714E1,0E0,4.223352E1,0E0,2.117743E1,1.2912123E2,4.9572937E2,2.566585E2,3.3544678E1,1.845757E1,0E0,8.344401E0,5.9594774E-1,1.8625171E0,0E0,0E0,2.3388672E0,1.619371E0,0E0,3.53992E0,8.06785E0,2.1732569E0,0E0,0E0,0E0,4.1164446E0,8.950335E0,1.0999315E1,6.7556877E0,8.115071E0,2.329145E0,8.547501E0,3.9530492E0,1.0939811E1,1.2877563E1,1.7828958E0,6.8672276E-1,0E0,0E0,0E0,0E0,0E0,0E0,0E0,2.9322445E1,9.957066E1,1.4384033E1,2.512886E1,9.708374E0,1.4748613E1,0E0,2.7974884E1,4.209082E1,3.3550537E2,9.315253E1,3.1313953E2,3.3970825E1,0E0,3.2792807E0,1.1938923E1,0E0,0E0,0E0,0E0,0E0,0E0,4.489807E0,2.4223633E0,0E0,0E0,0E0,0E0,2.1873088E0,0E0,1.2495146E0,8.6536324E-1,0E0,0E0,0E0,0E0,0E0,8.64968E0,0E0,0E0,0E0,0E0,9.74728E-1,0E0,5.131645E0,4.202011E0,0E0,4.941785E0,0E0,1.897501E0,4.0870056E0,0E0,0E0,0E0,4.9899435E-1,0E0,0E0,0E0,0E0,0E0,0E0,0E0,0E0,0E0,0E0,0E0,0E0,0E0,0E0,0E0,0E0,0E0,0E0,0E0,0E0,0E0,0E0,0E0,0E0,0E0,0E0,0E0,0E0,0E0,0E0,0E0,0E0,0E0,0E0,0E0,0E0,0E0,0E0,0E0,0E0,0E0,0E0,0E0,0E0,0E0,0E0,0E0,0E0,0E0,0E0,0E0,0E0,0E0,0E0,0E0],"parents":[2147483647,0,0,1,1,2,2,3,3,4,4,5,5,6,6,7,7,8,8,9,9,10,10,11,11,12,12,13,13,15,15,16,16,17,17,18,18,19,19,20,20,21,21,22,22,23,23,26,26,29,29,30,30,31,31,32,32,33,33,34,34,35,35,36,36,37,37,38,38,39,39,40,40,43,43,44,44,45,45,49,49,50,50,51,51,52,52,53,53,54,54,55,55,56,56,57,57,63,63,64,64,65,65,66,66,67,67,68,68,69,69,70,70,71,71,72,72,73,73,77,77,79,79,80,80,81,81,83,83,85,85,86,86,87,87,88,88,89,89,90,90,92,92,93,93,94,94,97,97,98,98,100,100,101,101,102,102,106,106,107,107,108,108,109,109,110,110,111,111,112,112,113,113,114,114,115,115,116,116,117,117,125,125,126,126,127,127,128,128,129,129,130,130,132,132,133,133,134,134,135,135,136,136,137,137,139,139,140,140,147,147,148,148,153,153,155,155,156,156,162,162,167,167,169,169,170,170,172,172,174,174,175,175,179,179],"right_children":[2,4,6,8,10,12,14,16,18,20,22,24,26,28,-1,30,32,34,36,38,40,42,44,46,-1,-1,48,-1,-1,50,52,54,56,58,60,62,64,66,68,70,72,-1,-1,74,76,78,-1,-1,-1,80,82,84,86,88,90,92,94,96,-1,-1,-1,-1,-1,98,100,102,104,106,108,110,112,114,116,118,-1,-1,-1,120,-1,122,124,126,-1,128,-1,130,132,134,136,138,140,-1,142,144,146,-1,-1,148,150,-1,152,154,156,-1,-1,-1,158,160,162,164,166,168,170,172,174,176,178,180,-1,-1,-1,-1,-1,-1,-1,182,184,186,188,190,192,-1,194,196,198,200,202,204,-1,206,208,-1,-1,-1,-1,-1,-1,210,212,-1,-1,-1,-1,214,-1,216,218,-1,-1,-1,-1,-1,220,-1,-1,-1,-1,222,-1,224,226,-1,228,-1,230,232,-1,-1,-1,234,-1,-1,-1,-1,-1,-1,-1,-1,-1,-1,-1,-1,-1,-1,-1,-1,-1,-1,-1,-1,-1,-1,-1,-1,-1,-1,-1,-1,-1,-1,-1,-1,-1,-1,-1,-1,-1,-1,-1,-1,-1,-1,-1,-1,-1,-1,-1,-1,-1,-1,-1,-1,-1,-1,-1],"split_conditions":[8E0,9.090909E-2,1.39E2,1.765E2,5E0,9.7E1,3.784E3,2E0,5.366667E0,1.0166667E0,1.1666666E0,5.263158E-2,1.2642858E1,2.1585715E2,3.5883108E-1,6.529E3,3.39772E5,7.415E2,8.9285713E-1,2E-2,6E0,3.6585367E-1,8.3E1,3.3333334E-1,3.3858668E-2,-1.1815608E-1,3.4154E4,-2.2776902E-2,6.283429E-2,2E-2,2.2174E4,2E0,5E0,5.21E2,1.399E3,1.9433E4,1.5555556E0,4.3333335E0,3.2142857E-1,7.058824E-1,2.5E-2,1.855174E-1,-1.3109529E-1,2E-2,9.5E1,4.3333335E0,4.9897093E-2,1.38203E-1,-0E0,6.5E-1,9.615385E-3,1.4909091E1,1.3047619E1,2.8866675E-1,9.7E1,1E0,5.3846157E-1,3.414E3,1.9542612E-1,-2.3155439E-1,7.203348E-2,-1.3169566E-1,3.97398E-2,1.8E3,7.241206E-1,1.9433E4,1.05E1,4.871795E-1,1.3333334E-1,1.1628E2,5.9166665E0,7.2E1,2.81643E5,1.14174E5,-3.4023967E-1,3.1139624E-1,-2.116644E-1,9.615385E-3,-3.4942144E-1,5.16129E-1,8.031496E-1,1.3514286E1,3.0244288E-1,1.32E1,3.4184906E-1,5E-1,4.3589744E-1,2E-2,5E0,8.5714287E-1,8.25E2,3.49514E-1,8.285714E0,4E-1,5.578E3,1.4651084E-1,-2.54808E-1,2.5542857E2,1.844E3,-1.4225385E-1,1.163E3,1E0,1.0909091E0,2.4045254E-1,-0E0,-3.367478E-1,1.3675269E0,1.4238935E0,2.1052632E-1,9.615385E-3,8.666667E0,2.62E3,1E0,1.2380642E-1,6.7222223E0,8.798646E-2,1E0,7.5478274E-1,-2.3017123E-1,-1.5782936E-1,8.726211E-2,-8.049984E-2,1.3031247E-1,3.0113512E-1,1.42563665E-2,1.0038462E1,4.415E3,7.158196E-4,1E0,5.9007E4,1.0285714E1,2.7626735E-1,7.7875E4,1.0909091E0,9.3333334E-1,1.4238935E0,7.058824E-1,2.6666667E0,1.357459E-1,1.7948718E-1,1.39E2,2.0994487E-1,-1.1830712E-1,-0E0,1.9705433E-1,-1.391206E-1,3.0035665E-2,6.56E0,3.5135135E-1,9.511481E-2,-6.369299E-2,1.8029723E-1,-4.889069E-2,1.1666666E0,-2.0116593E-1,6E0,3.1713E4,-1.5316068E-1,9.346549E-2,2.2515686E-1,-9.3989424E-2,-2.405232E-1,5.217391E-1,-2.810424E-1,2.82548E-2,-1.0506212E-1,2.1468502E-1,1.598E3,-2.1497253E-1,2.3E1,1.6E0,5.4661635E-2,7.0212764E-1,-1.1136458E-1,3.9208E4,3E0,7.587914E-2,1.17990546E-1,-4.4707194E-2,9.615385E-3,1.7420748E-1,1.22441165E-1,-4.339771E-2,2.1948542E-1,-5.8589645E-2,2.9326385E-1,5.3975694E-2,1.9932027E-1,-1.2347133E-1,3.0834368E-1,1.3655674E-1,-1.8675306E-1,2.0284364E-1,-4.3080103E-1,3.219962E-2,2.8500405E-1,-1.423277E-1,-3.4347153E-1,-2.2503635E-2,2.7670982E-1,-1.7357208E-1,-2.275183E-1,1.4488523E-1,-3.4981653E-1,9.391354E-2,-0E0,2.3407972E-1,-2.453273E-1,3.1684354E-2,5.2155968E-2,2.8701758E-1,3.4403324E-1,1.6884279E-1,1.20476104E-1,-4.5580298E-2,-0E0,2.0143175E-1,5.6148935E-2,-7.0830785E-2,-1.3133895E-1,7.961588E-2,-6.2484674E-2,7.4478954E-2,2.3524214E-1,-0E0,-1.6692843E-1,8.698381E-2,-1.9327311E-1,5.922643E-2,-0E0,2.7645534E-1,-2.9163996E-2,-3.5179E-1,-4.3459527E-2,5.5254254E-2],"split_indices":[23,16,2,2,17,2,1,1,22,2,16,10,22,2,0,21,21,2,8,14,18,20,1,6,0,0,21,0,0,14,21,23,18,1,2,21,17,22,2,17,17,0,0,14,1,22,0,0,0,8,12,22,22,19,2,14,14,21,0,0,0,0,0,2,19,21,22,20,20,2,22,2,21,21,0,0,0,12,0,10,20,22,0,22,0,6,14,14,18,14,1,0,2,14,1,0,0,2,1,0,1,1,17,0,0,0,19,19,20,12,22,21,23,19,22,6,23,19,0,0,0,0,0,0,0,22,21,6,1,21,22,0,21,17,14,19,17,17,0,20,2,0,0,0,0,0,0,22,17,0,0,0,0,16,0,18,21,0,0,0,0,0,17,0,0,0,0,21,0,1,16,0,20,0,21,1,0,0,0,12,0,0,0,0,0,0,0,0,0,0,0,0,0,0,0,0,0,0,0,0,0,0,0,0,0,0,0,0,0,0,0,0,0,0,0,0,0,0,0,0,0,0,0,0,0,0,0,0,0,0,0,0,0,0,0],"split_type":[0,0,0,0,0,0,0,0,0,0,0,0,0,0,0,0,0,0,0,0,0,0,0,0,0,0,0,0,0,0,0,0,0,0,0,0,0,0,0,0,0,0,0,0,0,0,0,0,0,0,0,0,0,0,0,0,0,0,0,0,0,0,0,0,0,0,0,0,0,0,0,0,0,0,0,0,0,0,0,0,0,0,0,0,0,0,0,0,0,0,0,0,0,0,0,0,0,0,0,0,0,0,0,0,0,0,0,0,0,0,0,0,0,0,0,0,0,0,0,0,0,0,0,0,0,0,0,0,0,0,0,0,0,0,0,0,0,0,0,0,0,0,0,0,0,0,0,0,0,0,0,0,0,0,0,0,0,0,0,0,0,0,0,0,0,0,0,0,0,0,0,0,0,0,0,0,0,0,0,0,0,0,0,0,0,0,0,0,0,0,0,0,0,0,0,0,0,0,0,0,0,0,0,0,0,0,0,0,0,0,0,0,0,0,0,0,0,0,0,0,0,0,0,0,0,0,0,0,0,0,0,0,0,0,0],"sum_hessian":[1.6723377E4,1.1750026E4,4.97335E3,1.0247634E4,1.5023931E3,4.8919443E3,8.1405876E1,7.6946934E3,2.5529404E3,6.3224457E2,8.701485E2,4.884267E3,7.6774282E0,2.844721E0,7.856116E1,4.1651606E3,3.5295327E3,3.6168648E1,2.516772E3,3.1645895E2,3.157856E2,1.3011428E1,8.57137E2,4.881721E3,2.5458236E0,3.7215974E0,3.9558306E0,1.2423981E0,1.602323E0,1.5024805E3,2.66268E3,2.6474236E3,8.821091E2,2.7323238E1,8.845408E0,4.428934E0,2.512343E3,1.8945627E2,1.27002686E2,9.576679E1,2.2001881E2,9.595418E0,3.4160101E0,8.446997E2,1.2437316E1,4.880184E3,1.5371753E0,1.3455896E0,2.610241E0,4.4914563E2,1.0533348E3,2.2429812E3,4.196988E2,2.108832E3,5.3859155E2,8.687383E2,1.3370784E1,9.741822E0,1.7581415E1,5.0002933E0,3.8451157E0,2.6540766E0,1.7748578E0,2.5007212E3,1.1621647E1,3.9378124E1,1.5007814E2,3.9136818E1,8.786586E1,4.6363766E1,4.9403027E1,4.185495E1,1.7816386E2,1.8430435E1,8.262693E2,4.567131E0,7.870185E0,7.1884136E0,4.8729956E3,7.7342844E0,4.4141135E2,8.522441E2,2.0109076E2,1.7407865E3,5.021948E2,3.4476654E2,7.4932274E1,1.0044452E3,1.1043868E3,4.9485532E2,4.373626E1,8.565319E2,1.2206345E1,9.326429E0,4.044354E0,4.3815007E0,5.3603215E0,2.4956753E3,5.0461264E0,2.4751232E0,9.146523E0,1.6868422E1,2.25097E1,1.4759947E2,2.4786701E0,3.2455505E1,6.681313E0,3.2652756E1,5.5213104E1,3.455914E1,1.1804627E1,1.089758E1,3.8505447E1,2.3229843E1,1.8625107E1,1.7342485E2,4.7390175E0,9.904547E0,8.525889E0,5.396753E0,1.7916605E0,1.1589087E0,6.5753756E0,4.3768582E2,3.7255163E0,3.9208566E2,4.601584E2,1.3654468E3,3.7533966E2,3.3012827E2,1.4638263E1,3.0489904E1,4.444237E1,1.7234406E2,8.3210114E2,5.0570554E2,5.9868134E2,4.8881183E2,6.043486E0,1.5071174E1,2.8665087E1,1.007011E1,2.1362345E0,2.3307433E0,6.995686E0,2.6772254E0,1.3671287E0,2.4001144E2,2.2556638E3,3.551541E0,1.4945852E0,7.9760094E0,1.1705141E0,1.0866849E1,6.001574E0,1.9081036E1,3.428666E0,5.0690317E0,1.6122814E0,3.0366795E1,2.2859628E0,8.3652E0,4.6847904E1,3.2458385E1,2.100753E0,2.5981748E0,9.206453E0,3.1217554E0,7.7758245E0,3.270352E1,5.801926E0,2.086433E0,2.114341E1,2.8247778E0,1.5800328E1,1.7158098E2,1.8438734E0,3.0718193E0,1.6671983E0,2.7972946E0,7.1072516E0,7.865357E1,3.134321E2,3.619524E2,9.820599E1,1.3440558E3,2.1390995E1,3.639525E2,1.1387124E1,2.8884213E2,4.128614E1,8.456912E0,6.1813507E0,3.6598194E1,7.8441744E0,1.6049915E2,1.1844912E1,4.785481E2,3.5355307E2,4.793213E2,2.638424E1,2.1503322E2,3.836481E2,4.8078583E2,8.025988E0,3.2135873E0,1.1857586E1,1.4440416E1,1.422467E1,1.0866962E1,2.2914449E2,2.2300417E3,2.5622059E1,9.626947E0,1.2399007E0,2.4815643E0,1.6599472E1,1.5733116E0,1.8553545E0,1.2253407E1,3.4594498E1,1.4925475E0,1.6292078E0,2.7002993E1,5.7005286E0,4.175901E0,1.6260256E0,1.9555504E1,1.5879064E0,3.0578504E0,1.2742478E1,5.4786887E0,1.6610228E2,1.2286226E0,1.5686721E0],"tree_param":{"num_deleted":"0","num_feature":"24","num_nodes":"235","size_leaf_vector":"1"}},{"base_weights":[-6.986122E-4,6.002932E-1,-8.927796E-1,7.8851074E-1,-4.4272396E-1,6.0463727E-1,-1.1212927E0,6.2823766E-1,1.2559597E0,-1.0131702E0,8.4214276E-1,8.4189326E-1,-6.456881E-1,-1.2775029E-1,-1.2191248E0,6.799263E-1,-8.8705355E-1,-1.2307302E-1,1.2598163E0,6.6016793E-1,-1.1092601E0,1.1022494E0,-1.042456E-1,1.2018309E0,6.0632867E-1,8.192053E-2,-1.0669807E0,3.928061E-1,-5.025244E-1,-1.2429749E0,9.3598515E-1,5.9332776E-1,1.274389E0,2.508517E-1,-1.204144E0,3.157169E-1,-0E0,9.3547165E-1,-1.9550079E-1,-1.1587621E0,4.9952832E-1,1.1356905E0,-3.9228562E-1,6.262733E-1,-1.6240282E0,-0E0,1.2153051E0,-1.4227732E-1,9.170512E-1,3.3480132E-1,-4.0406096E-1,-1.1326251E0,9.16041E-2,5.0074416E-1,-6.8870497E-1,-3.0976558E-2,-9.1916686E-1,-9.0268403E-1,-1.2628125E0,1.1310703E0,-1.4939505E-1,7.5638694E-1,-2.0793614E-1,3.1898317E-1,-1.5118475E-2,-1.2357559E0,-0E0,-1.5872449E-1,1.6450149E-1,-1.2611099E-1,1.0943565E0,-2.0667726E-1,-1.232202E0,2.272144E-1,-1.4194329E-1,1.1740775E0,6.65416E-2,1.884754E-2,-1.5890345E-1,-0E0,1.0494634E0,-4.8730144E-1,-9.380014E-2,3.049802E-1,-0E0,-8.0980676E-1,5.542839E-1,1.0900005E0,-4.7863173E-1,-2.5353238E-1,1.558401E-1,8.676466E-2,-1.8970256E-1,-3.1964657E-1,-2.1123007E-1,9.5268387E-1,1.11532666E-1,-2.4280837E-1,-0E0,-3.6072266E-1,5.3187656E-1,-1.0806242E0,1.480934E-1,1.5994881E-1,-1.0595611E0,-3.1525528E-1,3.0878713E-2,-0E0,2.9462823E-1,6.6804713E-1,1.1093141E0,-3.840919E-1,9.002432E-1,-0E0,-3.1316668E-1,1.2327725E0,-8.899075E-2,-7.894756E-1,5.286212E-1,-5.422029E-1,-1.2886747E0,3.0226126E-1,1.1665627E-2,1.2623617E-1,-1.583638E-1,-6.241654E-1,2.0439132E-1,1.0776469E-1,2.8255248E-1,-3.5663772E-1,4.2538036E-2,1.8770739E-3,-1.4671403E0,7.514871E-1,-2.1121527E-1,-3.217409E-1,1.176272E0,-2.930687E-1,1.8588157E-1,-5.359549E-1,7.6912664E-2,3.292024E-1,-3.8344245E-2,4.9473497E-1,-2.1350498E-1,-7.7300966E-2,1.003473E0,-8.04342E-1,4.7067964E-1,9.4745055E-2,-7.484126E-2,3.3209014E-1,-8.734195E-1,7.66657E-1,-1.6798902E-1,1.6884191E-1,-1.1588261E0,-6.683157E-1,2.1386872E-1,5.374846E-1,-2.0472167E-1,-1.2375896E0,-4.147083E-1,4.0047303E-1,8.247563E-1,1.1438361E0,6.8295497E-1,1.057989E0,-5.1366836E-1,9.397651E-1,-6.52523E-2,-4.9176145E-2,3.2093436E-2,1.3610113E0,-0E0,1.475808E-1,-3.36342E-1,7.3904616E-1,-0E0,-9.962653E-1,3.4712788E-1,-0E0,-1.2987082E0,-1.5371612E-1,4.9880716E-1,-8.622578E-1,3.5811543E-2,-6.25171E-2,1.1022017E-1,-1.8097618E-1,3.76065E-2,1.4829196E-1,-1.3776231E-1,-1.6776124E0,-0E0,1.0068902E0,3.1860608E-1,1.182026E0,-0E0,-0E0,-1.8801235E-1,-2.838412E-2,1.5172663E-1,1.5422946E-1,-0E0,1.0512466E0,-5.2236214E-2,8.842665E-2,-2.9679444E-1,6.211579E-1,-1.7283903E-1,-8.0841824E-2,2.1529232E-1,2.9107943E-1,-1.3541698E0,2.2709228E-1,2.8184247E-1,-4.7075844E-1,5.8878146E-2,1.0000923E-1,-3.703629E-2,-1.2036203E0,7.717077E-2,-2.2553974E-1,2.233847E-2,7.001208E-1,-9.05551E-2,-3.1460515E-1,5.039135E-2,-2.8006366E-1,2.2801941E-2,2.0435026E-1,5.4243777E-2,2.2552761E-1,7.6008014E-2,-0E0,2.868883E-1,2.022953E-2,2.615081E-1,-5.2090906E-2,2.902244E-1,-2.3153542E-1,-4.3273363E-3,2.3980382E-1,-6.5552685E-3,2.5674289E-3,3.5147625E-1,-6.0450833E-2,6.803337E-2,1.6667832E-1,-1.759369E-1,-9.0300255E-2,2.3513685E-1,1.4459348E-1,-1.7879027E-1,-2.7973258E-1,6.397547E-2,1.4498445E-1,-1.0916418E-1,9.818483E-2,-7.9834215E-2,-3.2473987E-1,-0E0,1.5866733E-1,-0E0,2.9043075E-2,-3.1161284E-1,-3.1793144E-2,7.214335E-2,-4.4325665E-1,-3.0955786E-2,2.8811812E-1,-8.463107E-2,-3.8335998E-2,1.11854434E-1,2.9812273E-1,4.4568703E-2,2.6896176E-1,-0E0,-1.0368159E-1,1.7486231E-1,4.1679922E-2,-2.0048049E-1,-0E0,1.2112622E-1,-3.6249417E-1,5.1485555E-4,-6.623649E-2,1.2210869E-1,-0E0,-1.6865118E-1,-3.1027225E-1,3.7930556E-2,-0E0,2.346826E-1,-1.9694547E-1,9.211218E-2],"categories":[],"categories_nodes":[],"categories_segments":[],"categories_sizes":[],"default_left":[0,0,0,0,0,0,0,0,0,0,0,0,0,0,0,0,0,0,0,0,0,0,0,0,0,0,0,0,0,0,0,0,0,0,0,0,0,0,0,0,0,0,0,0,0,0,0,0,0,0,0,0,0,0,0,0,0,0,0,0,0,0,0,0,0,0,0,0,0,0,0,0,0,0,0,0,0,0,0,0,0,0,0,0,0,0,0,0,0,0,0,0,0,0,0,0,0,0,0,0,0,0,0,0,0,0,0,0,0,0,0,0,0,0,0,0,0,0,0,0,0,0,0,0,0,0,0,0,0,0,0,0,0,0,0,0,0,0,0,0,0,0,0,0,0,0,0,0,0,0,0,0,0,0,0,0,0,0,0,0,0,0,0,0,0,0,0,0,0,0,0,0,0,0,0,0,0,0,0,0,0,0,0,0,0,0,0,0,0,0,0,0,0,0,0,0,0,0,0,0,0,0,0,0,0,0,0,0,0,0,0,0,0,0,0,0,0,0,0,0,0,0,0,0,0,0,0,0,0,0,0,0,0,0,0,0,0,0,0,0,0,0,0,0,0,0,0,0,0,0,0,0,0,0,0,0,0,0,0,0,0,0,0,0,0,0,0,0,0,0,0,0,0,0,0,0,0,0,0,0,0,0,0,0,0,0,0,0,0,0,0,0,0,0,0,0,0],"id":3,"left_children":[1,3,5,7,9,11,13,15,17,19,21,23,25,27,29,31,33,-1,35,37,39,41,43,45,47,49,51,53,55,57,59,61,63,-1,65,-1,67,69,-1,71,73,75,77,79,81,-1,83,85,87,89,91,93,-1,95,97,99,101,103,105,107,-1,109,111,-1,-1,113,-1,-1,-1,-1,115,117,119,-1,-1,121,123,-1,-1,125,127,-1,129,-1,-1,131,133,135,137,139,-1,141,-1,-1,143,145,147,-1,149,151,153,155,157,159,161,-1,-1,-1,-1,163,165,167,169,171,-1,173,-1,175,177,179,181,-1,183,-1,-1,185,-1,187,-1,189,-1,191,193,195,-1,-1,197,-1,-1,199,-1,201,-1,203,-1,-1,205,207,209,-1,-1,211,213,215,217,219,221,223,-1,225,-1,227,229,231,233,235,237,239,241,243,-1,-1,-1,245,247,249,-1,251,253,255,257,259,261,-1,263,265,-1,-1,-1,-1,-1,267,-1,269,-1,271,273,275,-1,-1,-1,-1,-1,-1,-1,277,-1,-1,-1,279,-1,281,-1,283,285,287,-1,289,-1,-1,-1,291,-1,-1,-1,293,-1,-1,-1,-1,295,-1,-1,-1,-1,-1,-1,-1,-1,-1,-1,-1,-1,-1,-1,-1,-1,-1,-1,-1,-1,-1,-1,-1,-1,-1,-1,-1,-1,-1,-1,-1,-1,-1,-1,-1,-1,-1,-1,-1,-1,-1,-1,-1,-1,-1,-1,-1,-1,-1,-1,-1,-1,-1,-1,-1,-1,-1,-1,-1,-1,-1,-1,-1,-1,-1,-1],"loss_changes":[7.915309E3,1.7335598E3,2.0375518E3,5.538838E2,9.941101E2,2.3702124E2,4.990581E2,4.395193E2,1.6760742E1,1.5491425E2,1.0445404E2,5.079785E1,4.078951E1,9.2574554E1,2.4730469E2,2.719314E2,1.1732994E2,0E0,1.3182129E1,2.4921299E1,7.444031E1,1.947699E1,1.09787384E2,3.3599243E0,9.799063E1,6.7563276E0,1.06866455E1,2.4519321E1,5.2968338E1,2.3240723E1,1.9969627E1,6.1831445E2,6.011841E0,0E0,7.1438904E0,0E0,8.266286E0,1.4301868E1,0E0,5.7534668E1,1.576861E1,1.1408325E1,2.0540566E0,1.8398323E1,1.2900978E1,0E0,1.6992493E0,6.0441277E1,7.440546E1,7.5909247E0,4.2428827E0,7.9795914E0,0E0,3.0492664E1,4.5908785E0,2.594395E1,2.6893532E1,4.795015E1,9.551758E0,2.7058182E0,0E0,1.1666382E2,1.5740683E2,0E0,0E0,3.3308105E0,0E0,0E0,0E0,0E0,1.2264942E1,3.188116E1,2.5633179E1,0E0,0E0,1.2144165E1,6.776907E0,0E0,0E0,1.798555E1,1.0785408E0,0E0,1.3130584E0,0E0,0E0,3.7255535E1,2.03732E1,6.151773E1,3.467235E1,3.361832E0,0E0,1.0631531E0,0E0,0E0,1.0751151E1,7.652809E0,3.614451E1,0E0,1.7032537E0,3.3994404E1,9.691858E0,1.4601761E1,1.5943323E1,1.6146708E1,2.3348328E1,0E0,0E0,0E0,0E0,1.292024E2,5.4415283E0,1.3192206E2,7.0733185E0,3.48527E-1,0E0,5.8065414E0,0E0,2.4053263E1,3.8625088E0,3.0953472E1,1.0504272E1,0E0,6.149574E0,0E0,0E0,5.254182E0,0E0,1.9396429E0,0E0,3.0146737E0,0E0,2.6519916E0,1.2980537E1,3.3261452E0,0E0,0E0,9.8947144E-1,0E0,0E0,2.1087644E0,0E0,2.069151E0,0E0,4.062786E-1,0E0,0E0,6.812378E0,1.671054E1,1.5972015E1,0E0,0E0,1.021619E1,3.342111E1,5.0098915E0,2.7102106E0,1.3899653E0,1.0873657E1,3.5750804E0,0E0,6.292691E0,0E0,8.89035E0,2.0398859E1,8.8133194E1,7.916028E1,4.708618E0,1.4234512E1,1.0109802E1,1.3094135E2,3.531227E0,0E0,0E0,0E0,7.3451996E-1,9.676063E-1,1.0678346E1,0E0,7.664706E0,7.723859E0,1.0105705E1,6.2847624E0,1.91834E0,3.0787354E0,0E0,8.6309624E-1,8.779063E0,0E0,0E0,0E0,0E0,0E0,1.626645E0,0E0,1.8096619E0,0E0,9.434452E0,2.562157E0,7.4121094E-1,0E0,0E0,0E0,0E0,0E0,0E0,0E0,2.5105133E0,0E0,0E0,0E0,7.900652E0,0E0,6.0915155E0,0E0,1.5945728E0,7.118721E0,3.9471836E0,0E0,1.6260343E0,0E0,0E0,0E0,8.793411E0,0E0,0E0,0E0,4.7288465E0,0E0,0E0,0E0,0E0,1.2593241E1,0E0,0E0,0E0,0E0,0E0,0E0,0E0,0E0,0E0,0E0,0E0,0E0,0E0,0E0,0E0,0E0,0E0,0E0,0E0,0E0,0E0,0E0,0E0,0E0,0E0,0E0,0E0,0E0,0E0,0E0,0E0,0E0,0E0,0E0,0E0,0E0,0E0,0E0,0E0,0E0,0E0,0E0,0E0,0E0,0E0,0E0,0E0,0E0,0E0,0E0,0E0,0E0,0E0,0E0,0E0,0E0,0E0,0E0,0E0,0E0,0E0,0E0,0E0,0E0,0E0,0E0],"parents":[2147483647,0,0,1,1,2,2,3,3,4,4,5,5,6,6,7,7,8,8,9,9,10,10,11,11,12,12,13,13,14,14,15,15,16,16,18,18,19,19,20,20,21,21,22,22,23,23,24,24,25,25,26,26,27,27,28,28,29,29,30,30,31,31,32,32,34,34,36,36,37,37,39,39,40,40,41,41,42,42,43,43,44,44,46,46,47,47,48,48,49,49,50,50,51,51,53,53,54,54,55,55,56,56,57,57,58,58,59,59,61,61,62,62,65,65,70,70,71,71,72,72,75,75,76,76,79,79,80,80,82,82,85,85,86,86,87,87,88,88,89,89,91,91,94,94,95,95,96,96,98,98,99,99,100,100,101,101,102,102,103,103,104,104,109,109,110,110,111,111,112,112,113,113,115,115,117,117,118,118,119,119,120,120,122,122,125,125,127,127,129,129,131,131,132,132,133,133,136,136,139,139,141,141,143,143,146,146,147,147,148,148,151,151,152,152,153,153,154,154,155,155,156,156,157,157,159,159,161,161,162,162,163,163,164,164,165,165,166,166,167,167,168,168,169,169,173,173,174,174,175,175,177,177,178,178,179,179,180,180,181,181,182,182,184,184,185,185,191,191,193,193,195,195,196,196,197,197,205,205,209,209,211,211,213,213,214,214,215,215,217,217,221,221,225,225,230,230],"right_children":[2,4,6,8,10,12,14,16,18,20,22,24,26,28,30,32,34,-1,36,38,40,42,44,46,48,50,52,54,56,58,60,62,64,-1,66,-1,68,70,-1,72,74,76,78,80,82,-1,84,86,88,90,92,94,-1,96,98,100,102,104,106,108,-1,110,112,-1,-1,114,-1,-1,-1,-1,116,118,120,-1,-1,122,124,-1,-1,126,128,-1,130,-1,-1,132,134,136,138,140,-1,142,-1,-1,144,146,148,-1,150,152,154,156,158,160,162,-1,-1,-1,-1,164,166,168,170,172,-1,174,-1,176,178,180,182,-1,184,-1,-1,186,-1,188,-1,190,-1,192,194,196,-1,-1,198,-1,-1,200,-1,202,-1,204,-1,-1,206,208,210,-1,-1,212,214,216,218,220,222,224,-1,226,-1,228,230,232,234,236,238,240,242,244,-1,-1,-1,246,248,250,-1,252,254,256,258,260,262,-1,264,266,-1,-1,-1,-1,-1,268,-1,270,-1,272,274,276,-1,-1,-1,-1,-1,-1,-1,278,-1,-1,-1,280,-1,282,-1,284,286,288,-1,290,-1,-1,-1,292,-1,-1,-1,294,-1,-1,-1,-1,296,-1,-1,-1,-1,-1,-1,-1,-1,-1,-1,-1,-1,-1,-1,-1,-1,-1,-1,-1,-1,-1,-1,-1,-1,-1,-1,-1,-1,-1,-1,-1,-1,-1,-1,-1,-1,-1,-1,-1,-1,-1,-1,-1,-1,-1,-1,-1,-1,-1,-1,-1,-1,-1,-1,-1,-1,-1,-1,-1,-1,-1,-1,-1,-1,-1,-1],"split_conditions":[6E0,1.8018018E-2,1.6666667E-1,7.2E1,1.765E2,7E-1,1E1,5.076923E0,9.548387E-1,7.8125E-1,1.0514019E1,9E-1,1.0166667E0,7.0625E0,1.39E2,3.44554E5,1.7792E4,-1.2307302E-1,2.6086956E-1,1.2180269E-3,1.243202E6,9.3333334E-1,2.5641027E-1,1.47E3,6.7222223E0,2.1875E-1,1.0981482E1,1.5786504E0,5E0,1.5E1,4.859335E-2,3E0,4.5E-1,2.508517E-1,9E-1,3.157169E-1,8.054545E0,9.256E3,-1.9550079E-1,3E0,5E-2,1.399E3,1.8181819E-1,1E1,2.4318E4,-0E0,6E0,5.0689654E0,2.4630541E-2,1.1744E4,4E0,5.6851E4,9.16041E-2,5.6666665E0,6.56E0,1.0857E4,9.7E1,5.75E0,5.263158E-2,2E-1,-1.4939505E-1,9.615385E-3,1.3953489E-1,3.1898317E-1,-1.5118475E-2,2.0298E4,-0E0,-1.5872449E-1,1.6450149E-1,-1.2611099E-1,4E0,1.0392E4,9.5E-1,2.272144E-1,-1.4194329E-1,5E0,4E0,1.884754E-2,-1.5890345E-1,1.1111112E0,4.6926E4,-4.8730144E-1,3.3735445E-1,3.049802E-1,-0E0,1.4285715E0,7.415E2,8.653E3,1.765E2,7E0,1.558401E-1,2.8573E4,-1.8970256E-1,-3.1964657E-1,2.04E0,8.4210527E-1,9.0025413E-1,-2.4280837E-1,1.0166667E0,8.523809E0,3.5134099E0,5.66E3,3.9208E4,1.0954452E0,3.6923077E0,-3.1525528E-1,3.0878713E-2,-0E0,2.9462823E-1,6.997E3,2.3188E4,3.866E3,1.2600504E0,1.3E1,-3.1316668E-1,9E0,-8.899075E-2,3.0566573E0,1.0090909E1,1.06379E5,5.366667E0,3.0226126E-1,4.137143E2,1.2623617E-1,-1.583638E-1,5.099091E2,2.0439132E-1,2.9651724E2,2.8255248E-1,1.3583333E1,4.2538036E-2,9.615385E-3,4E0,1.39E2,-2.1121527E-1,-3.217409E-1,4.897959E-2,-2.930687E-1,1.8588157E-1,2E0,7.6912664E-2,1.4101E4,-3.8344245E-2,4.9804133E-1,-2.1350498E-1,-7.7300966E-2,1.1359185E0,1.47E3,7.5539E4,9.4745055E-2,-7.484126E-2,8.37037E0,2.62E3,1.5395441E0,1.1111112E0,6E0,3.125E0,4.58E2,2.1386872E-1,6.5625E-1,-2.0472167E-1,7E0,3.2142857E-1,3.414E3,2.04E0,4.857143E0,3.2907E4,1.25E-2,2.8866675E-1,3.2E1,-6.52523E-2,-4.9176145E-2,3.2093436E-2,1.2820514E-1,1.95631E5,6.529E3,-3.36342E-1,1.8181819E-1,1.8181819E-1,9.459459E-1,5E0,1.0166667E0,1.0737418E7,-1.5371612E-1,6.43E2,1.105E1,3.5811543E-2,-6.25171E-2,1.1022017E-1,-1.8097618E-1,3.76065E-2,9.256E3,-1.3776231E-1,1.5395441E0,-0E0,6.263158E0,2.1585715E2,6.43E2,-0E0,-0E0,-1.8801235E-1,-2.838412E-2,1.5172663E-1,1.5422946E-1,-0E0,5.0357145E-1,-5.2236214E-2,8.842665E-2,-2.9679444E-1,4.722E3,-1.7283903E-1,3.0566573E0,2.1529232E-1,1.1111112E0,1.2367508E1,1.7792E4,2.8184247E-1,4.0416665E0,5.8878146E-2,1.0000923E-1,-3.703629E-2,1.29297E5,7.717077E-2,-2.2553974E-1,2.233847E-2,2.75E-1,-9.05551E-2,-3.1460515E-1,5.039135E-2,-2.8006366E-1,2.7777778E-2,2.0435026E-1,5.4243777E-2,2.2552761E-1,7.6008014E-2,-0E0,2.868883E-1,2.022953E-2,2.615081E-1,-5.2090906E-2,2.902244E-1,-2.3153542E-1,-4.3273363E-3,2.3980382E-1,-6.5552685E-3,2.5674289E-3,3.5147625E-1,-6.0450833E-2,6.803337E-2,1.6667832E-1,-1.759369E-1,-9.0300255E-2,2.3513685E-1,1.4459348E-1,-1.7879027E-1,-2.7973258E-1,6.397547E-2,1.4498445E-1,-1.0916418E-1,9.818483E-2,-7.9834215E-2,-3.2473987E-1,-0E0,1.5866733E-1,-0E0,2.9043075E-2,-3.1161284E-1,-3.1793144E-2,7.214335E-2,-4.4325665E-1,-3.0955786E-2,2.8811812E-1,-8.463107E-2,-3.8335998E-2,1.11854434E-1,2.9812273E-1,4.4568703E-2,2.6896176E-1,-0E0,-1.0368159E-1,1.7486231E-1,4.1679922E-2,-2.0048049E-1,-0E0,1.2112622E-1,-3.6249417E-1,5.1485555E-4,-6.623649E-2,1.2210869E-1,-0E0,-1.6865118E-1,-3.1027225E-1,3.7930556E-2,-0E0,2.346826E-1,-1.9694547E-1,9.211218E-2],"split_indices":[18,3,15,2,2,16,0,15,8,8,22,2,2,22,2,21,21,0,16,5,21,20,3,21,22,20,22,19,0,0,3,0,15,0,20,0,22,21,0,0,15,2,4,0,21,0,0,2,3,21,0,21,0,22,22,21,2,22,10,20,0,12,12,0,0,21,0,0,0,0,18,21,4,0,0,18,0,0,0,15,21,0,12,0,0,2,2,21,2,18,0,21,0,0,2,4,19,0,2,22,2,21,21,19,15,0,0,0,0,21,21,21,19,0,0,0,0,2,2,21,22,0,2,0,0,2,0,2,0,22,0,12,0,2,0,0,5,0,0,0,0,21,0,19,0,0,19,21,21,0,0,22,21,19,15,0,16,2,0,2,0,18,2,21,2,22,21,15,19,0,0,0,0,3,21,21,0,4,4,4,18,2,22,0,2,22,0,0,0,0,0,21,0,19,0,22,2,2,0,0,0,0,0,0,0,20,0,0,0,21,0,2,0,15,22,21,0,2,0,0,0,21,0,0,0,2,0,0,0,0,16,0,0,0,0,0,0,0,0,0,0,0,0,0,0,0,0,0,0,0,0,0,0,0,0,0,0,0,0,0,0,0,0,0,0,0,0,0,0,0,0,0,0,0,0,0,0,0,0,0,0,0,0,0,0,0,0,0,0,0,0,0,0,0,0,0,0],"split_type":[0,0,0,0,0,0,0,0,0,0,0,0,0,0,0,0,0,0,0,0,0,0,0,0,0,0,0,0,0,0,0,0,0,0,0,0,0,0,0,0,0,0,0,0,0,0,0,0,0,0,0,0,0,0,0,0,0,0,0,0,0,0,0,0,0,0,0,0,0,0,0,0,0,0,0,0,0,0,0,0,0,0,0,0,0,0,0,0,0,0,0,0,0,0,0,0,0,0,0,0,0,0,0,0,0,0,0,0,0,0,0,0,0,0,0,0,0,0,0,0,0,0,0,0,0,0,0,0,0,0,0,0,0,0,0,0,0,0,0,0,0,0,0,0,0,0,0,0,0,0,0,0,0,0,0,0,0,0,0,0,0,0,0,0,0,0,0,0,0,0,0,0,0,0,0,0,0,0,0,0,0,0,0,0,0,0,0,0,0,0,0,0,0,0,0,0,0,0,0,0,0,0,0,0,0,0,0,0,0,0,0,0,0,0,0,0,0,0,0,0,0,0,0,0,0,0,0,0,0,0,0,0,0,0,0,0,0,0,0,0,0,0,0,0,0,0,0,0,0,0,0,0,0,0,0,0,0,0,0,0,0,0,0,0,0,0,0,0,0,0,0,0,0,0,0,0,0,0,0,0,0,0,0,0,0,0,0,0,0,0,0,0,0,0,0,0,0],"sum_hessian":[1.4753356E4,8.814976E3,5.9383813E3,7.4694165E3,1.345559E3,7.844903E2,5.153891E3,5.5726543E3,1.8967621E3,9.332016E2,4.123574E2,6.615082E2,1.22982086E2,4.6410254E2,4.6897886E3,5.392182E3,1.8047227E2,2.1346266E0,1.8946274E3,4.8455425E1,8.847462E2,3.2382816E2,8.852925E1,2.5180032E2,4.097079E2,4.548108E1,7.750101E1,1.9282803E2,2.712745E2,4.641034E3,4.875436E1,4.7167627E3,6.754193E2,2.3842031E1,1.5663023E2,1.8846779E3,9.949585E0,4.2827747E1,5.6276793E0,8.60374E2,2.437221E1,3.1866437E2,5.1637692E0,6.1178585E1,2.7350666E1,3.3844285E0,2.484159E2,1.1981141E2,2.8989648E2,3.2531727E1,1.2949351E1,7.588398E1,1.6170264E0,1.7870398E2,1.4124057E1,1.3104555E2,1.4022896E2,2.7139008E2,4.369644E3,4.5081745E1,3.6726155E0,3.920668E3,7.960949E2,6.7420215E2,1.217196E0,1.5315274E2,3.4775028E0,4.329948E0,5.6196375E0,2.4525654E0,4.037518E1,6.410729E1,7.962667E2,1.8923819E1,5.44839E0,3.0607593E2,1.2588432E1,1.2382989E0,3.9254704E0,2.5804708E1,3.5373875E1,2.0751928E1,6.5987387E0,2.4644173E2,1.9741656E0,6.1659462E1,5.8151947E1,2.596435E2,3.0252968E1,9.575743E0,2.2955984E1,5.5726595E0,7.3766923E0,6.256766E1,1.3316318E1,7.8016594E1,1.00687386E2,9.492799E0,4.6312585E0,8.5076935E1,4.5968605E1,1.2272758E2,1.7501375E1,3.391407E1,2.37476E2,4.3670835E3,2.5605445E0,2.2188585E0,4.2862885E1,3.1496926E3,7.709752E2,6.905702E2,1.0552472E2,2.8572087E0,1.5029553E2,3.8280556E1,2.0946229E0,3.647465E1,2.7632639E1,6.57328E1,7.305339E2,2.9522098E2,1.0854974E1,9.620669E0,2.967763E0,1.5897951E1,9.906758E0,4.954676E0,3.0419199E1,4.7403107E0,1.8584282E0,2.8933073E1,3.272639E1,5.3697132E1,4.4548163E0,6.2317777E0,2.5341173E2,2.0030252E1,1.0222715E1,7.9446273E0,1.6311159E0,4.3737125E0,1.1989467E0,6.005428E0,7.3108897E0,1.1466808E0,7.686991E1,2.5728506E1,7.495888E1,2.7899516E0,1.8413069E0,3.5911568E1,4.916537E1,3.536087E1,1.0607736E1,5.9933395E0,1.1673424E2,7.480194E0,1.002118E1,2.695277E1,6.961299E0,1.8115065E2,5.6325356E1,1.1725308E3,1.9771619E3,7.030809E2,6.789435E1,5.3309734E1,6.3726044E2,1.0394858E2,1.5761387E0,1.468791E0,1.3884177E0,3.367177E1,4.608789E0,1.4159222E1,2.2315432E1,1.8844282E1,8.788356E0,4.402425E1,2.1708551E1,5.0908375E0,7.2544305E2,3.103523E0,7.7514505E0,1.2874313E1,3.0236373E0,1.2396419E0,3.7150345E0,2.9097793E0,1.8305311E0,2.7407248E1,1.5258254E0,2.8503279E1,4.2231097E0,2.7987804E1,2.5709328E1,2.5161172E2,1.8000052E0,2.6127942E0,5.331833E0,1.1356349E0,3.2380776E0,3.1632903E0,2.8421376E0,7.553092E1,1.3389891E0,5.744037E0,1.9984468E1,6.928898E1,5.6698966E0,2.1240948E1,1.4670618E1,1.4194335E1,3.497104E1,1.872836E1,1.6632511E1,7.3068585E0,3.300877E0,4.910607E0,1.0827324E0,1.1491923E2,1.8150117E0,6.199446E0,1.280748E0,2.487282E1,2.0799496E0,1.796103E2,1.5403465E0,1.9660267E1,3.6665092E1,3.4935892E2,8.231719E2,1.7098282E3,2.6733365E2,4.3719263E0,6.987089E2,2.9134272E1,3.876008E1,2.8654568E0,5.044428E1,3.4356555E2,2.936949E2,1.0289897E2,1.0496085E0,2.2229357E0,3.1448833E1,1.2846584E0,3.3241303E0,1.0317692E1,3.8415294E0,1.434236E0,1.7410048E1,5.1098237E0,3.6785321E0,4.1352932E1,2.6713173E0,1.8865437E1,2.8431149E0,2.8582811E0,2.232556E0,7.2349786E2,1.9452088E0,5.032221E0,2.7192297E0,3.729474E0,9.144839E0,6.544891E0,2.0862356E1,2.5402847E1,3.1004317E0,2.663265E1,1.3551527E0,3.358223E0,2.2351105E1,2.4621964E2,5.3920813E0,7.369031E1,1.8406128E0,2.4295132E0,6.685947E1,1.7351261E1,3.8896866E0,5.4379125E0,8.756422E0,3.308788E1,1.8831596E0,4.899562E0,1.3828797E1,2.7051098E0,4.6017485E0,1.12838615E2,2.080609E0,7.9242983E0,1.6948523E1,8.074464E0,2.8590628E1],"tree_param":{"num_deleted":"0","num_feature":"24","num_nodes":"297","size_leaf_vector":"1"}},{"base_weights":[-1.850328E-3,4.226957E-1,-1.1483805E0,5.7267046E-1,-6.227903E-1,-1.1811738E0,9.0266436E-1,3.9343315E-1,9.850683E-1,-1.3264434E-1,-1.0443887E0,-3.838328E-1,-1.1902938E0,2.8229263E-1,-1.3709655E-1,6.5574753E-1,-1.1524482E-1,1.0610045E0,4.768537E-1,3.3288933E-2,-1.0110259E0,2.3606831E-1,-1.0872657E0,-8.206311E-1,6.589838E-1,-2.9706383E-1,8.738632E-3,4.486448E-1,7.740581E-1,5.9622075E-2,-1.0051374E0,8.488223E-1,1.1841758E0,-2.1156833E-1,1.1144E0,4.3176225E-1,-1.9909486E-1,-1.1535808E0,-0E0,8.5986376E-1,-3.2174E-1,-1.1145302E0,2.6431158E-1,1.091722E-1,-2.6275155E-1,2.0102763E-1,-9.525108E-3,9.169156E-1,2.5802702E-1,8.4645385E-1,5.2089524E-1,-7.193723E-2,9.1454476E-1,-4.7035712E-1,-1.144072E0,9.8334074E-1,2.9987447E-2,-1.6227192E-1,2.9801205E-1,4.214361E-1,-9.41606E-1,5.0365E-1,1.1729678E0,6.0000175E-1,-8.962098E-1,-6.2721467E-1,-2.0318457E-3,-2.9889226E-1,-0E0,1.3517454E-1,-1.3419773E-1,-0E0,2.774428E-1,3.509549E-2,-1.6029987E-1,-4.0010452E-2,-1.1384217E0,3.1208673E-1,-1.5320909E-1,9.9555206E-1,5.71849E-1,2.9477698E-1,-3.5508177E-1,1.0800039E0,7.7291775E-1,-1.9370472E-1,8.165938E-1,-2.350011E-1,5.775274E-1,9.5825046E-1,-5.1806414E-1,-8.164104E-1,4.7236788E-1,-1.1708844E0,6.94669E-2,2.908259E-1,7.297953E-1,-3.7119454E-1,7.334676E-1,-0E0,6.274166E-1,-1.0468445E0,-0E0,1.9734606E-1,-1.1477436E-1,2.9407573E-1,-0E0,7.815776E-1,1.7124276E-1,-2.7782997E-1,-0E0,-9.3479764E-1,3.7509277E-2,3.30777E-1,-4.4563976E-1,-5.2978393E-2,4.042093E-2,-5.853321E-2,9.9013746E-2,1.3483919E-1,-1.7693338E-1,-1.1478916E0,-3.1158298E-1,1.0810784E-2,1.0056245E0,7.310191E-1,1.4679831E-1,3.69853E-1,-4.7989392E-1,1.9461107E-2,1.1286324E0,8.416574E-1,4.4999827E-2,-9.610447E-1,4.0218195E-1,9.411006E-1,-6.8557847E-1,-6.211221E-1,1.3441862E-1,4.464297E-1,9.5680285E-1,9.7975093E-1,1.0143665E-1,-1.8606988E-1,2.5407975E-3,1.3553068E-1,-9.633506E-1,2.0064887E-1,-2.0175698E-1,-9.1555E-2,-3.0348188E-1,8.729052E-1,-1.0897274E0,-7.8456444E-1,3.351783E-1,-1.2466026E-2,2.2801413E-1,1.6063163E-1,-2.332607E-1,6.680741E-1,-0E0,-4.4375848E-2,-1.2310042E0,-1.07828364E-1,1.4249426E-1,8.3926183E-1,-9.504088E-2,-4.6838936E-1,4.705513E-1,1.0131184E-1,-1.08451255E-1,-2.2024957E-2,-1.1190077E0,-1.6132851E-1,1.6304164E-1,5.5450344E-1,-2.6761615E-1,-6.9256353E-1,6.9041556E-1,-2.6205057E-1,-2.8820473E-1,-1.7843848E-1,1.6620424E-1,2.519056E-1,-0E0,-0E0,1.9253843E-1,-4.599086E-2,1.23794645E-1,6.788976E-2,2.054352E-1,-1.5769738E-1,1.4550072E-1,1.2574187E-1,-2.1819852E-1,2.8556767E-1,1.0743767E-1,1.957144E-1,2.845698E-1,-1.9612934E-2,1.0907957E-1,-3.2576138E-1,5.3009298E-2,1.4795415E-1,-1.720777E-2,1.07782364E-1,2.690902E-1,8.797984E-2,-3.313689E-1,-2.2880957E-1,1.23062365E-1,1.3659227E-1,-1.3207118E-1,1.536217E-1,-1.3440944E-1,2.4666753E-1,-0E0,1.8309875E-1,2.889789E-1,1.1968143E-1,-8.123631E-2,-2.8320995E-1,8.911098E-2,3.3671524E-2,-1.2062308E-1,-1.528658E-1,1.1001961E-1,-1.4517954E-1,2.352379E-1,4.658579E-2,-3.16543E-1,-2.621592E-1,-0E0,3.5694616E-3,1.7716885E-1,-1.5348822E-1,1.08268015E-1,-1.0812494E-1,2.9926082E-2,-0E0,1.8219545E-1,-1.4369524E-1,6.325375E-2,-0E0,-3.2346946E-1,2.1962692E-1,-0E0,-1.5439121E-1,1.4790339E-2,-5.064536E-3,1.482752E-1,6.0626563E-2,-1.3459985E-1,5.249054E-2,-3.001339E-1,2.0960022E-2,-1.6768749E-1,3.5473622E-2,1.8338515E-1,-2.0581478E-1,9.9221386E-2,-2.498327E-1,-8.013595E-2,1.8847598E-1,-0E0,5.6173664E-2,-1.45336E-1],"categories":[],"categories_nodes":[],"categories_segments":[],"categories_sizes":[],"default_left":[0,0,0,0,0,0,0,0,0,0,0,0,0,0,0,0,0,0,0,0,0,0,0,0,0,0,0,0,0,0,0,0,0,0,0,0,0,0,0,0,0,0,0,0,0,0,0,0,0,0,0,0,0,0,0,0,0,0,0,0,0,0,0,0,0,0,0,0,0,0,0,0,0,0,0,0,0,0,0,0,0,0,0,0,0,0,0,0,0,0,0,0,0,0,0,0,0,0,0,0,0,0,0,0,0,0,0,0,0,0,0,0,0,0,0,0,0,0,0,0,0,0,0,0,0,0,0,0,0,0,0,0,0,0,0,0,0,0,0,0,0,0,0,0,0,0,0,0,0,0,0,0,0,0,0,0,0,0,0,0,0,0,0,0,0,0,0,0,0,0,0,0,0,0,0,0,0,0,0,0,0,0,0,0,0,0,0,0,0,0,0,0,0,0,0,0,0,0,0,0,0,0,0,0,0,0,0,0,0,0,0,0,0,0,0,0,0,0,0,0,0,0,0,0,0,0,0,0,0,0,0,0,0,0,0,0,0,0,0,0,0,0,0,0,0,0,0,0,0,0,0,0,0,0,0,0,0,0,0,0,0,0,0,0,0,0,0],"id":4,"left_children":[1,3,5,7,9,11,13,15,17,19,21,23,25,-1,-1,27,29,31,33,35,37,39,41,43,45,-1,-1,47,49,51,53,55,57,59,61,63,65,67,69,71,73,75,77,-1,-1,-1,-1,79,81,83,85,87,89,91,93,95,97,-1,-1,99,101,103,105,107,109,111,113,-1,-1,-1,-1,115,-1,117,-1,119,121,-1,-1,123,125,127,-1,129,131,133,135,137,139,141,143,145,147,149,-1,-1,151,153,155,157,159,161,163,-1,-1,-1,-1,165,167,-1,169,171,173,175,177,-1,-1,-1,-1,-1,-1,179,181,-1,183,185,187,189,191,193,195,197,199,201,203,205,207,209,211,213,215,217,219,-1,-1,-1,221,-1,223,225,-1,227,229,231,233,235,-1,-1,237,239,-1,241,243,-1,-1,245,-1,247,249,-1,-1,251,253,255,-1,257,259,261,263,265,-1,-1,-1,-1,-1,-1,-1,-1,-1,-1,-1,-1,-1,-1,-1,-1,-1,-1,-1,-1,-1,-1,-1,-1,-1,-1,-1,-1,-1,-1,-1,-1,-1,-1,-1,-1,-1,-1,-1,-1,-1,-1,-1,-1,-1,-1,-1,-1,-1,-1,-1,-1,-1,-1,-1,-1,-1,-1,-1,-1,-1,-1,-1,-1,-1,-1,-1,-1,-1,-1,-1,-1,-1,-1,-1,-1,-1,-1,-1,-1,-1,-1,-1,-1,-1,-1,-1],"loss_changes":[6.2867876E3,1.4792378E3,2.4026709E2,6.058999E2,2.4248425E2,2.089746E1,2.2719303E1,7.692082E2,9.18938E1,8.21046E1,3.708618E1,2.4457104E1,4.932129E0,0E0,0E0,8.997485E1,3.0662985E2,4.920703E1,1.491996E2,4.418256E1,1.3465324E1,1.0204924E1,2.5127502E1,1.3657335E1,2.7017865E0,0E0,0E0,1.2214145E2,4.036487E1,1.8608336E2,1.9491058E1,8.840466E1,3.1026001E1,7.841338E1,1.4039917E0,4.166429E1,2.438269E1,5.3177795E0,5.9177065E0,3.2510414E0,2.5547042E0,1.3897217E1,1.7679722E1,0E0,0E0,0E0,0E0,6.226013E0,6.2567673E1,2.570105E1,1.1812665E2,1.5135435E2,1.6747452E1,2.7309387E1,1.2249268E1,2.5967834E1,3.597142E1,0E0,0E0,7.102886E0,8.724091E0,9.269245E0,6.7933655E-1,1.0686134E1,3.019205E0,2.0059647E1,3.1984951E1,0E0,0E0,0E0,0E0,4.4443196E-1,0E0,1.6138775E0,0E0,9.551597E0,1.1394043E0,0E0,0E0,1.5665894E0,4.415371E0,5.799739E1,0E0,2.0672638E1,7.063678E1,7.76444E1,7.683316E1,1.643718E2,1.0479744E1,2.210266E0,1.9881349E0,1.4793823E1,6.600821E0,1.022345E1,0E0,0E0,8.462108E1,2.4979683E1,7.44211E0,6.6843257E0,1.9381332E0,1.141584E1,4.258082E0,0E0,0E0,0E0,0E0,9.4279175E0,1.1763305E1,0E0,2.615571E0,9.32539E0,5.087579E0,1.7358263E1,2.86873E1,0E0,0E0,0E0,0E0,0E0,0E0,7.8326416E-1,8.202017E0,0E0,1.1014404E0,2.1440544E0,4.550154E0,3.7564743E1,1.60557E1,1.246163E1,3.980713E-1,1.5690002E1,6.932396E0,3.267241E1,9.378371E0,2.1545258E1,2.4877071E1,1.884645E2,1.627002E2,3.9145885E1,1.883503E0,2.808609E0,2.893499E0,0E0,0E0,0E0,1.5551476E1,0E0,1.7016113E0,6.0869517E0,0E0,3.26631E1,7.9516106E0,1.1184231E1,2.8853698E0,4.9040165E0,0E0,0E0,2.6753922E0,1.91502E0,0E0,3.8116856E0,4.2232285E0,0E0,0E0,4.0516205E0,0E0,2.356947E0,3.2886057E0,0E0,0E0,3.3021746E0,8.291145E0,4.366046E0,0E0,5.2689877E0,1.5063616E1,6.091881E0,3.447132E-1,3.0341144E0,0E0,0E0,0E0,0E0,0E0,0E0,0E0,0E0,0E0,0E0,0E0,0E0,0E0,0E0,0E0,0E0,0E0,0E0,0E0,0E0,0E0,0E0,0E0,0E0,0E0,0E0,0E0,0E0,0E0,0E0,0E0,0E0,0E0,0E0,0E0,0E0,0E0,0E0,0E0,0E0,0E0,0E0,0E0,0E0,0E0,0E0,0E0,0E0,0E0,0E0,0E0,0E0,0E0,0E0,0E0,0E0,0E0,0E0,0E0,0E0,0E0,0E0,0E0,0E0,0E0,0E0,0E0,0E0,0E0,0E0,0E0,0E0,0E0,0E0,0E0,0E0,0E0,0E0,0E0,0E0,0E0,0E0,0E0,0E0,0E0,0E0,0E0],"parents":[2147483647,0,0,1,1,2,2,3,3,4,4,5,5,6,6,7,7,8,8,9,9,10,10,11,11,12,12,15,15,16,16,17,17,18,18,19,19,20,20,21,21,22,22,23,23,24,24,27,27,28,28,29,29,30,30,31,31,32,32,33,33,34,34,35,35,36,36,37,37,38,38,39,39,40,40,41,41,42,42,47,47,48,48,49,49,50,50,51,51,52,52,53,53,54,54,55,55,56,56,59,59,60,60,61,61,62,62,63,63,64,64,65,65,66,66,71,71,73,73,75,75,76,76,79,79,80,80,81,81,83,83,84,84,85,85,86,86,87,87,88,88,89,89,90,90,91,91,92,92,93,93,96,96,97,97,98,98,99,99,100,100,101,101,102,102,107,107,108,108,110,110,111,111,112,112,113,113,114,114,121,121,122,122,124,124,125,125,126,126,127,127,128,128,129,129,130,130,131,131,132,132,133,133,134,134,135,135,136,136,137,137,138,138,139,139,140,140,141,141,142,142,146,146,148,148,149,149,151,151,152,152,153,153,154,154,155,155,158,158,159,159,161,161,162,162,165,165,167,167,168,168,171,171,172,172,173,173,175,175,176,176,177,177,178,178,179,179],"right_children":[2,4,6,8,10,12,14,16,18,20,22,24,26,-1,-1,28,30,32,34,36,38,40,42,44,46,-1,-1,48,50,52,54,56,58,60,62,64,66,68,70,72,74,76,78,-1,-1,-1,-1,80,82,84,86,88,90,92,94,96,98,-1,-1,100,102,104,106,108,110,112,114,-1,-1,-1,-1,116,-1,118,-1,120,122,-1,-1,124,126,128,-1,130,132,134,136,138,140,142,144,146,148,150,-1,-1,152,154,156,158,160,162,164,-1,-1,-1,-1,166,168,-1,170,172,174,176,178,-1,-1,-1,-1,-1,-1,180,182,-1,184,186,188,190,192,194,196,198,200,202,204,206,208,210,212,214,216,218,220,-1,-1,-1,222,-1,224,226,-1,228,230,232,234,236,-1,-1,238,240,-1,242,244,-1,-1,246,-1,248,250,-1,-1,252,254,256,-1,258,260,262,264,266,-1,-1,-1,-1,-1,-1,-1,-1,-1,-1,-1,-1,-1,-1,-1,-1,-1,-1,-1,-1,-1,-1,-1,-1,-1,-1,-1,-1,-1,-1,-1,-1,-1,-1,-1,-1,-1,-1,-1,-1,-1,-1,-1,-1,-1,-1,-1,-1,-1,-1,-1,-1,-1,-1,-1,-1,-1,-1,-1,-1,-1,-1,-1,-1,-1,-1,-1,-1,-1,-1,-1,-1,-1,-1,-1,-1,-1,-1,-1,-1,-1,-1,-1,-1,-1,-1,-1],"split_conditions":[8E0,9.090909E-2,8.674E3,5.7E2,5E0,1.1494253E-2,2.1E1,3E0,5E0,3E0,2.25E0,1.798E3,7.058824E-1,2.8229263E-1,-1.3709655E-1,6.529E3,2E0,1.2380642E-1,2.954E3,6E0,2E0,2.4E-1,8.3E1,2.9545453E-1,6.3726E4,-2.9706383E-1,8.738632E-3,2E-2,1E0,9.615385E-3,1.1494253E-2,1E0,9.746835E-1,2E0,4.467E3,1.1494253E-2,1.9433E4,2.049E3,5E0,1.0865749E0,9.258201E-1,2E-2,9.5E1,1.091722E-1,-2.6275155E-1,2.0102763E-1,-9.525108E-3,6E0,1.1494253E-2,5.3846157E-1,5.633007E-1,2.22E2,1.5395441E0,2.05E2,8.5714287E-1,7.894737E-1,7.894737E-1,-1.6227192E-1,2.9801205E-1,9.944903E-1,5.6613755E-1,1.48432E5,7.2380954E-1,4E0,1.5E1,2.5555557E-1,2E-2,-2.9889226E-1,-0E0,1.3517454E-1,-1.3419773E-1,1.7948718E-1,2.774428E-1,3.0232558E-1,-1.6029987E-1,1.11729E5,1.3513513E-1,3.1208673E-1,-1.5320909E-1,6.5E-1,1E0,5.38E3,-3.5508177E-1,5.3333336E-1,2.2174E4,1.3471E4,5.4526E4,1.6245876E-1,3.529412E-1,6E0,5.8E1,3E0,4.5319E4,7E0,6.94669E-2,2.908259E-1,9E-1,2.4324325E-1,6.3726E4,6.18E2,7.158196E-4,6.666667E-2,3.125E-1,1.9734606E-1,-1.1477436E-1,2.9407573E-1,-0E0,2.108185E0,1.0392E4,-2.7782997E-1,1.7E1,2.5E-2,6.7099565E-1,7E0,5.21E2,-5.2978393E-2,4.042093E-2,-5.853321E-2,9.9013746E-2,1.3483919E-1,-1.7693338E-1,1.1494253E-2,8.488372E-1,1.0810784E-2,8.4210527E-1,3.125E-1,1.2600504E0,9.615385E-3,1.2380642E-1,1.4696E4,1E0,4E0,3.7799E4,5E0,1.1494253E-2,2.037037E-1,6.666667E-2,4.8E-1,1.1494253E-2,1.1494253E-2,6E0,1.2380642E-1,3.372093E-1,-1.8606988E-1,2.5407975E-3,1.3553068E-1,2.125E0,2.0064887E-1,6.666667E-2,3.4285715E-1,-3.0348188E-1,6.529E3,6.5E-1,1.976E3,9.615385E-3,1.5E-1,2.2801413E-1,1.6063163E-1,1.71E3,6.91E2,-0E0,1.286E3,6.02E2,-1.07828364E-1,1.4249426E-1,6.3726E4,-9.504088E-2,9.615385E-3,9E0,1.0131184E-1,-1.08451255E-1,1.1666666E0,1E0,1.3241662E0,1.6304164E-1,1.1666666E0,4.318182E0,5E0,1.5E-1,2.1875E-1,-2.8820473E-1,-1.7843848E-1,1.6620424E-1,2.519056E-1,-0E0,-0E0,1.9253843E-1,-4.599086E-2,1.23794645E-1,6.788976E-2,2.054352E-1,-1.5769738E-1,1.4550072E-1,1.2574187E-1,-2.1819852E-1,2.8556767E-1,1.0743767E-1,1.957144E-1,2.845698E-1,-1.9612934E-2,1.0907957E-1,-3.2576138E-1,5.3009298E-2,1.4795415E-1,-1.720777E-2,1.07782364E-1,2.690902E-1,8.797984E-2,-3.313689E-1,-2.2880957E-1,1.23062365E-1,1.3659227E-1,-1.3207118E-1,1.536217E-1,-1.3440944E-1,2.4666753E-1,-0E0,1.8309875E-1,2.889789E-1,1.1968143E-1,-8.123631E-2,-2.8320995E-1,8.911098E-2,3.3671524E-2,-1.2062308E-1,-1.528658E-1,1.1001961E-1,-1.4517954E-1,2.352379E-1,4.658579E-2,-3.16543E-1,-2.621592E-1,-0E0,3.5694616E-3,1.7716885E-1,-1.5348822E-1,1.08268015E-1,-1.0812494E-1,2.9926082E-2,-0E0,1.8219545E-1,-1.4369524E-1,6.325375E-2,-0E0,-3.2346946E-1,2.1962692E-1,-0E0,-1.5439121E-1,1.4790339E-2,-5.064536E-3,1.482752E-1,6.0626563E-2,-1.3459985E-1,5.249054E-2,-3.001339E-1,2.0960022E-2,-1.6768749E-1,3.5473622E-2,1.8338515E-1,-2.0581478E-1,9.9221386E-2,-2.498327E-1,-8.013595E-2,1.8847598E-1,-0E0,5.6173664E-2,-1.45336E-1],"split_indices":[23,16,1,1,17,13,23,1,18,23,16,1,14,0,0,21,23,19,1,18,16,20,1,20,21,0,0,14,1,12,13,23,8,23,1,13,21,1,23,19,19,14,1,0,0,0,0,18,13,14,19,1,19,1,14,14,14,0,0,19,13,21,20,1,1,13,14,0,0,0,0,20,0,13,0,21,5,0,0,8,1,21,0,4,21,21,21,19,13,18,1,18,21,1,0,0,20,13,21,1,6,20,14,0,0,0,0,19,21,0,1,17,13,1,1,0,0,0,0,0,0,13,4,0,20,4,19,12,19,21,23,18,21,18,13,14,20,13,13,13,18,19,13,0,0,0,17,0,20,20,0,21,8,1,12,13,0,0,1,1,0,1,1,0,0,21,0,12,1,0,0,16,1,19,0,16,16,1,13,20,0,0,0,0,0,0,0,0,0,0,0,0,0,0,0,0,0,0,0,0,0,0,0,0,0,0,0,0,0,0,0,0,0,0,0,0,0,0,0,0,0,0,0,0,0,0,0,0,0,0,0,0,0,0,0,0,0,0,0,0,0,0,0,0,0,0,0,0,0,0,0,0,0,0,0,0,0,0,0,0,0,0,0,0,0,0,0],"split_type":[0,0,0,0,0,0,0,0,0,0,0,0,0,0,0,0,0,0,0,0,0,0,0,0,0,0,0,0,0,0,0,0,0,0,0,0,0,0,0,0,0,0,0,0,0,0,0,0,0,0,0,0,0,0,0,0,0,0,0,0,0,0,0,0,0,0,0,0,0,0,0,0,0,0,0,0,0,0,0,0,0,0,0,0,0,0,0,0,0,0,0,0,0,0,0,0,0,0,0,0,0,0,0,0,0,0,0,0,0,0,0,0,0,0,0,0,0,0,0,0,0,0,0,0,0,0,0,0,0,0,0,0,0,0,0,0,0,0,0,0,0,0,0,0,0,0,0,0,0,0,0,0,0,0,0,0,0,0,0,0,0,0,0,0,0,0,0,0,0,0,0,0,0,0,0,0,0,0,0,0,0,0,0,0,0,0,0,0,0,0,0,0,0,0,0,0,0,0,0,0,0,0,0,0,0,0,0,0,0,0,0,0,0,0,0,0,0,0,0,0,0,0,0,0,0,0,0,0,0,0,0,0,0,0,0,0,0,0,0,0,0,0,0,0,0,0,0,0,0,0,0,0,0,0,0,0,0,0,0,0,0,0,0,0,0,0,0],"sum_hessian":[1.2904256E4,9.418653E3,3.4856025E3,8.23997E3,1.1786831E3,3.4333477E3,5.2255035E1,5.752277E3,2.487693E3,5.4929443E2,6.293887E2,4.267554E1,3.390672E3,4.6769768E1,5.4852657E0,3.795817E3,1.9564601E3,2.1576687E3,3.3002438E2,4.6478387E2,8.4510544E1,1.877789E1,6.106108E2,3.1616392E1,1.1059147E1,3.3895667E3,1.1053269E0,1.3921741E3,2.4036428E3,1.6377954E3,3.186647E2,8.101032E2,1.3475656E3,1.5933035E2,1.7069402E2,1.7158289E2,2.93201E2,7.3909966E1,1.0600574E1,8.643616E0,1.0134273E1,6.0024066E2,1.0370099E1,3.4667046E0,2.8149687E1,9.931623E0,1.1275234E0,3.9559766E2,9.9657635E2,1.8566207E3,5.4702216E2,1.422001E3,2.1579446E2,7.1878044E1,2.4678667E2,6.937016E2,1.164016E2,5.499547E0,1.342066E3,8.555128E1,7.3779076E1,2.0798756E1,1.4989526E2,1.554484E2,1.6134485E1,8.7166084E1,2.060349E2,7.182877E1,2.081195E0,5.734814E0,4.865759E0,2.8012674E0,5.842349E0,5.0690126E0,5.06526E0,1.4431313E1,5.858094E2,4.560388E0,5.8097115E0,3.1190787E2,8.368979E1,9.798719E2,1.6704515E1,4.2481168E2,1.4318091E3,1.5940445E2,3.876177E2,1.1405725E3,2.8142844E2,2.1177562E2,4.018838E0,5.3984715E1,1.7893328E1,2.438913E2,2.895379E0,3.9025592E2,3.0344568E2,7.449674E1,4.190486E1,3.1565989E1,5.3985287E1,6.672694E1,7.0521398E0,1.764639E1,3.1523654E0,1.4877449E2,1.1207695E0,1.0443452E2,5.1013878E1,1.1167795E1,4.9666905E0,5.948236E1,2.7683725E1,1.1687485E2,8.916005E1,1.3351009E0,1.4661664E0,1.9772712E0,3.0917416E0,7.265656E0,7.1656566E0,5.7588043E2,9.92892E0,4.7822003E0,3.0712567E2,5.629616E1,2.7393621E1,8.970199E2,8.2851974E1,2.000516E1,4.048065E2,1.3060659E3,1.2574321E2,6.926237E1,9.014209E1,3.60358E2,2.7259697E1,5.576571E2,5.829154E2,2.1932686E2,6.210156E1,2.0454585E2,7.2297773E0,3.0013564E0,1.0174814E0,3.1930869E0,5.079163E1,1.2553704E1,5.339624E0,1.1617644E1,2.3227365E2,2.8426685E2,1.9178806E1,4.7730003E1,2.6766739E1,7.757199E0,3.4147663E1,7.4769173E0,2.4089071E1,5.1385403E1,2.5998838E0,1.2300804E1,5.4426132E1,3.796725E0,3.2554147E0,1.0176569E2,2.6688263E0,1.4110272E1,3.6903606E1,1.585608E0,3.3810825E0,1.1994117E1,4.7488247E1,2.2158453E1,5.525272E0,8.678919E1,3.0085659E1,7.566251E1,1.34975395E1,7.7586956E0,5.6812177E2,8.81637E0,1.1125494E0,3.054887E2,1.6369665E0,2.720451E0,5.3575714E1,1.3476147E1,1.3917476E1,7.467527E2,1.502672E2,7.517028E1,7.6816945E0,1.52149515E1,4.790208E0,3.9081482E2,1.399168E1,1.1154786E3,1.9058722E2,9.622939E1,2.9513819E1,5.3891335E1,1.537103E1,6.505831E1,2.508378E1,8.292085E1,2.7743713E2,1.054715E1,1.6712547E1,4.4206717E2,1.1558994E2,3.609287E2,2.2198666E2,1.8972069E2,2.9606176E1,5.973556E1,2.365995E0,9.9454704E1,1.0509114E2,5.008105E0,2.2216728E0,4.6338066E1,4.4535627E0,1.6405537E0,3.6990702E0,6.6424246E0,4.9752197E0,1.0688472E1,2.735784E2,1.5145526E0,1.7664253E1,3.4568108E1,1.3161894E1,1.8863602E1,7.903136E0,3.666448E0,4.0907507E0,1.6841566E1,7.2475047E0,5.614125E0,4.577128E1,4.242309E0,8.058495E0,3.3651333E0,5.1061E1,9.721446E1,4.55123E0,1.20956545E1,2.014618E0,6.30314E0,3.0600466E1,8.095538E0,3.898578E0,1.5532162E0,4.5935028E1,1.611539E1,6.0430627E0,3.1120457E1,5.566873E1,1.6718958E1,1.3366701E1,3.5031322E1,4.0631187E1,1.10690365E1,2.4285033E0,2.1644611E0,5.5942345E0],"tree_param":{"num_deleted":"0","num_feature":"24","num_nodes":"267","size_leaf_vector":"1"}},{"base_weights":[-5.9767566E-3,4.4759887E-1,-7.484664E-1,5.947253E-1,-4.0611994E-1,4.148288E-1,-9.5014584E-1,3.954593E-1,1.0489129E0,-7.512009E-1,5.421111E-1,7.5814617E-1,6.8916276E-2,4.555844E-1,-1.0710465E0,5.729179E-1,-1.2774838E-2,1.0872813E0,5.4109734E-1,4.204597E-1,-8.859206E-1,-3.004856E-1,9.6554947E-1,5.822205E-1,1.079065E0,-3.0228913E-1,1.0715164E0,5.791828E-1,-1.5380451E-1,-1.087506E0,4.3619952E-1,8.5556364E-1,4.798145E-1,-4.320798E-1,4.493301E-1,-1.3476124E-1,1.092788E0,1.0239159E0,-7.2838366E-1,5.9376556E-1,-1.8066177E-1,7.240133E-1,-9.939626E-1,2.4982458E-1,-1.0921903E0,1.1212837E0,-5.2511577E-2,8.935048E-1,-7.072419E-2,2.7706644E-1,8.8284295E-3,-6.1221904E-1,6.984225E-2,2.7265677E-1,-0E0,6.1302674E-1,-1.6850679E-1,-5.143865E-1,3.1707168E-1,-1.0890619E0,3.7209917E-2,-1.7580685E-1,2.3766553E-1,8.720861E-1,-2.11466E-1,3.6834165E-1,8.3775735E-1,6.2879485E-1,-6.333442E-1,-1.7276914E-1,7.4642146E-1,1.8633959E-1,2.744194E-1,-0E0,2.5854737E-1,-8.367635E-1,5.839063E-2,8.789832E-1,-3.0486107E-1,-1.24313906E-1,9.043419E-1,2.5192606E-1,-1.0468695E0,-1.162065E0,1.2993468E-2,-0E0,2.808973E-1,3.4685832E-1,-1.7232192E-1,2.1843758E-1,2.581943E-1,2.1416466E-1,-5.8733314E-1,-1.1218135E0,-1.8006694E-1,2.5285068E-1,-2.2122851E-1,6.4700866E-1,-1.15393914E-1,-6.485529E-1,1.7725043E-2,-9.069411E-2,5.2954996E-1,-9.5139635E-1,-2.7863926E-1,1.15317516E-1,-5.3411607E-2,8.8088834E-1,-1.4367004E-1,6.1654334E-4,-1.4270346E-1,3.0447716E-1,7.12991E-1,-0E0,8.428211E-1,-2.1837322E-1,8.872355E-1,-1.0067524E0,3.7474844E-1,-8.3751017E-1,3.6513606E-1,1.0384405E0,2.3556486E-1,-3.342706E-1,6.211972E-1,7.526189E-2,-2.4668379E-1,-0E0,9.19558E-1,-2.3878112E-1,1.3053484E-1,9.881966E-1,-4.212528E-2,-1.479099E-1,2.4585178E-1,-1.220108E0,-6.7179465E-1,-2.9790497E-1,-0E0,-9.121536E-2,6.3672864E-1,3.1763285E-1,-1.3212835E-2,-5.4129593E-2,4.1111305E-1,-7.9594994E-1,4.609867E-2,-3.0394405E-1,4.625658E-3,9.985602E-2,-3.1629407E-1,-7.032825E-2,6.633929E-1,4.1009977E-1,7.882574E-1,2.0456117E-2,-9.011031E-1,5.2880876E-2,-1.23656996E-1,6.5172094E-1,-1.5512662E-2,-6.298429E-1,-1.0749301E0,9.5662206E-1,6.6601944E-1,3.7990615E-1,1.4898233E-1,1.0535311E-1,1.9023032E-1,1.8702629E-1,2.568737E-1,-3.2825936E-2,9.5113564E-1,-1.3063432E0,-6.0231334E-1,-4.2138466E-1,5.0199187E-1,-1.0789998E0,3.3319077E-1,-8.619358E-1,5.4123753E-1,3.0975193E-1,3.779137E-1,7.003823E-1,-4.0735424E-1,-0E0,-1.5781999E-1,1.7708276E-1,-0E0,6.941039E-2,-1.1035113E-2,2.565232E-1,2.610269E-1,-6.872215E-2,3.675402E-1,1.0656644E0,-2.3865782E-2,5.8667514E-2,-7.9515636E-2,-1.2345753E0,1.1399499E-1,2.631561E-1,-9.7130424E-1,-0E0,1.894381E-1,9.900443E-2,-0E0,-4.668793E-2,5.0654113E-2,1.3834438E-1,-1.5461314E-1,-2.2148395E-1,5.8738254E-3,7.006479E-1,-3.0946478E-1,3.167851E-1,-9.676187E-1,-1.9487898E-1,9.07318E-1,8.3514595E-1,-3.3679003E-1,9.135917E-2,2.0318693E-1,-7.772223E-2,1.0256838E-1,-0E0,-2.628497E-1,1.7397352E-1,-0E0,-9.01208E-1,3.458274E-2,-1.0884472E0,9.249381E-2,2.450123E-1,3.1014347E-2,2.1698995E-1,3.16203E-2,-2.083135E-3,1.1119788E-1,2.1098562E-2,1.545526E-1,7.12206E-2,-2.1556426E-2,9.31323E-2,-1.5930383E-1,-6.338044E-2,2.4823408E-1,-3.3143333E-1,3.3562794E-2,-2.354246E-1,7.150414E-2,6.521873E-2,-2.6504874E-1,4.766138E-2,1.6269433E-1,6.1025377E-3,-3.038191E-1,-2.8315362E-2,1.8866986E-1,-0E0,-2.527649E-1,6.0932215E-2,2.4994503E-1,-6.994893E-2,1.7802085E-1,-8.9318976E-2,1.9400363E-1,7.8253355E-3,-3.5436988E-1,-2.36774E-2,5.550832E-2,1.0504656E-1,-0E0,-0E0,1.2616564E-1,2.9148087E-1,-0E0,-1.3130662E-1,-3.142988E-1,-1.451003E-1,1.9493642E-1,-2.7642888E-1,-5.3146705E-3,-5.923872E-2,9.91637E-3,1.7800696E-2,-1.1937098E-1,-7.531125E-2,2.2075024E-1,-1.3419111E-1,6.865776E-2,-2.087417E-3,1.4863966E-1,2.2151982E-2,-3.6939117E-1,-0E0,2.4049862E-1,2.1590376E-1,-0E0,1.027331E-1,-1.8032542E-1,-0E0,6.216927E-2,4.5625642E-2,-7.984598E-2,-2.5147837E-1,-1.303897E-1,-2.3856129E-1,1.3450164E-1,-2.7388102E-1,-0E0],"categories":[],"categories_nodes":[],"categories_segments":[],"categories_sizes":[],"default_left":[0,0,0,0,0,0,0,0,0,0,0,0,0,0,0,0,0,0,0,0,0,0,0,0,0,0,0,0,0,0,0,0,0,0,0,0,0,0,0,0,0,0,0,0,0,0,0,0,0,0,0,0,0,0,0,0,0,0,0,0,0,0,0,0,0,0,0,0,0,0,0,0,0,0,0,0,0,0,0,0,0,0,0,0,0,0,0,0,0,0,0,0,0,0,0,0,0,0,0,0,0,0,0,0,0,0,0,0,0,0,0,0,0,0,0,0,0,0,0,0,0,0,0,0,0,0,0,0,0,0,0,0,0,0,0,0,0,0,0,0,0,0,0,0,0,0,0,0,0,0,0,0,0,0,0,0,0,0,0,0,0,0,0,0,0,0,0,0,0,0,0,0,0,0,0,0,0,0,0,0,0,0,0,0,0,0,0,0,0,0,0,0,0,0,0,0,0,0,0,0,0,0,0,0,0,0,0,0,0,0,0,0,0,0,0,0,0,0,0,0,0,0,0,0,0,0,0,0,0,0,0,0,0,0,0,0,0,0,0,0,0,0,0,0,0,0,0,0,0,0,0,0,0,0,0,0,0,0,0,0,0,0,0,0,0,0,0,0,0,0,0,0,0,0,0,0,0,0,0,0,0,0,0,0,0,0,0,0,0,0,0,0,0,0,0,0,0,0,0,0,0,0,0,0,0,0,0,0,0,0,0],"id":5,"left_children":[1,3,5,7,9,11,13,15,17,19,21,23,25,27,29,31,33,35,37,39,41,43,45,47,49,51,53,55,57,59,61,63,65,67,69,-1,71,73,75,77,-1,79,81,-1,83,85,87,89,91,-1,-1,93,95,-1,-1,97,-1,99,101,103,105,-1,-1,107,109,111,113,115,117,119,121,123,-1,-1,-1,125,-1,127,129,-1,131,133,135,137,-1,-1,-1,139,-1,141,-1,143,145,147,149,151,-1,153,-1,155,-1,157,159,161,-1,-1,-1,163,-1,-1,-1,165,167,-1,169,-1,171,173,175,177,179,181,183,185,187,189,-1,-1,191,-1,193,195,-1,197,-1,199,201,-1,-1,-1,203,205,-1,207,209,211,-1,-1,-1,213,-1,215,217,219,221,223,225,-1,-1,227,-1,229,231,233,235,237,239,241,-1,-1,-1,243,245,247,249,251,253,255,257,259,261,-1,263,265,267,269,-1,-1,-1,-1,-1,-1,271,-1,273,275,-1,-1,-1,277,-1,279,281,-1,-1,-1,283,-1,-1,-1,285,-1,-1,287,289,291,293,-1,295,297,299,301,-1,-1,-1,303,-1,-1,-1,305,307,309,-1,-1,-1,-1,-1,-1,-1,-1,-1,-1,-1,-1,-1,-1,-1,-1,-1,-1,-1,-1,-1,-1,-1,-1,-1,-1,-1,-1,-1,-1,-1,-1,-1,-1,-1,-1,-1,-1,-1,-1,-1,-1,-1,-1,-1,-1,-1,-1,-1,-1,-1,-1,-1,-1,-1,-1,-1,-1,-1,-1,-1,-1,-1,-1,-1,-1,-1,-1,-1,-1,-1,-1,-1,-1,-1,-1,-1,-1,-1],"loss_changes":[3.7903745E3,8.787643E2,1.0040442E3,5.357954E2,3.3876862E2,7.395137E1,6.2179175E2,3.0158453E2,3.0522339E1,1.21858795E2,1.0078801E2,1.2778183E1,1.2251021E2,2.2853226E1,8.629468E1,7.2642395E1,2.4526518E2,1.8569458E1,8.929167E1,1.7884275E1,1.2234082E2,1.0350877E2,3.1057892E1,4.5352135E1,1.8776932E0,2.8336868E1,1.7295456E0,1.2314056E1,9.726852E0,7.2697754E0,2.6488949E1,1.417627E1,8.457468E1,1.4391724E2,1.1237608E2,0E0,8.873413E0,9.844742E-1,5.897522E0,2.0807955E1,0E0,1.2581068E1,4.450653E1,0E0,6.589569E0,4.5433044E-1,8.78403E0,1.1597191E1,1.1833571E1,0E0,0E0,2.6580952E1,1.9734756E1,0E0,0E0,1.0500999E1,0E0,3.4549313E0,2.819478E0,5.2265625E0,1.6542454E0,0E0,0E0,1.1742126E1,1.740138E0,3.4786392E1,2.2236633E0,4.5577393E1,2.1425366E2,7.243495E1,5.8286667E1,6.086074E0,0E0,0E0,0E0,6.8186283E0,0E0,1.663948E0,7.358116E0,0E0,5.5504303E0,1.0251811E1,3.385388E1,2.7138977E0,0E0,0E0,0E0,5.4733534E0,0E0,1.2975504E0,0E0,3.138673E0,6.08889E0,8.01181E0,2.595909E1,1.3923811E1,0E0,4.9344025E0,0E0,5.951495E0,0E0,2.1181593E0,2.2256565E0,1.863153E1,0E0,0E0,0E0,6.3270264E0,0E0,0E0,0E0,1.5884842E1,6.327057E0,0E0,3.0159912E0,0E0,6.830406E0,4.387787E1,1.6787035E1,2.8226059E1,2.5897854E1,3.0367462E1,4.8498493E1,1.8293169E0,9.099555E-1,5.566283E-1,0E0,0E0,1.0954628E0,0E0,2.0749521E0,5.0576935E0,0E0,1.9035143E0,0E0,1.3711548E1,6.0314247E1,0E0,0E0,0E0,1.6657534E0,1.1776621E0,0E0,9.3659574E-1,3.4582672E0,3.013815E0,0E0,0E0,0E0,1.7782536E1,0E0,2.2239908E1,1.9517057E1,3.430753E1,1.1339417E0,2.1968067E0,2.1726017E0,0E0,0E0,4.6532774E-1,0E0,3.3969826E1,1.114566E1,8.824371E0,2.0494148E1,2.5018417E1,1.3474053E1,1.2874423E0,0E0,0E0,0E0,3.841354E0,6.910507E0,9.813904E0,5.8660385E1,1.2224531E1,4.7791214E0,1.3408821E1,4.6538963E0,1.3576736E0,1.1147535E1,0E0,1.6737087E1,9.5378E0,3.1962513E1,4.2121908E-1,0E0,0E0,0E0,0E0,0E0,0E0,4.0726256E-1,0E0,1.2596914E0,3.311882E0,0E0,0E0,0E0,2.125183E0,0E0,2.5784393E1,1.9293747E1,0E0,0E0,0E0,3.4787762E-1,0E0,0E0,0E0,1.2755054E0,0E0,0E0,7.4452963E0,6.580291E0,4.6232314E0,1.2866402E1,0E0,2.7223816E0,2.1038208E0,1.3203779E1,3.416281E-1,0E0,0E0,0E0,9.125056E-1,0E0,0E0,0E0,8.9868164E-1,3.005735E1,4.9534607E0,0E0,0E0,0E0,0E0,0E0,0E0,0E0,0E0,0E0,0E0,0E0,0E0,0E0,0E0,0E0,0E0,0E0,0E0,0E0,0E0,0E0,0E0,0E0,0E0,0E0,0E0,0E0,0E0,0E0,0E0,0E0,0E0,0E0,0E0,0E0,0E0,0E0,0E0,0E0,0E0,0E0,0E0,0E0,0E0,0E0,0E0,0E0,0E0,0E0,0E0,0E0,0E0,0E0,0E0,0E0,0E0,0E0,0E0,0E0,0E0,0E0,0E0,0E0,0E0,0E0,0E0,0E0,0E0,0E0,0E0,0E0,0E0,0E0,0E0,0E0,0E0,0E0,0E0,0E0],"parents":[2147483647,0,0,1,1,2,2,3,3,4,4,5,5,6,6,7,7,8,8,9,9,10,10,11,11,12,12,13,13,14,14,15,15,16,16,17,17,18,18,19,19,20,20,21,21,22,22,23,23,24,24,25,25,26,26,27,27,28,28,29,29,30,30,31,31,32,32,33,33,34,34,36,36,37,37,38,38,39,39,41,41,42,42,44,44,45,45,46,46,47,47,48,48,51,51,52,52,55,55,57,57,58,58,59,59,60,60,63,63,64,64,65,65,66,66,67,67,68,68,69,69,70,70,71,71,75,75,77,77,78,78,80,80,81,81,82,82,83,83,87,87,89,89,91,91,92,92,93,93,94,94,95,95,97,97,99,99,101,101,102,102,103,103,107,107,111,111,112,112,114,114,116,116,117,117,118,118,119,119,120,120,121,121,122,122,123,123,124,124,125,125,128,128,130,130,131,131,133,133,135,135,136,136,140,140,141,141,143,143,144,144,145,145,149,149,151,151,152,152,153,153,154,154,155,155,156,156,159,159,161,161,162,162,163,163,164,164,165,165,166,166,167,167,171,171,172,172,173,173,174,174,175,175,176,176,177,177,178,178,179,179,180,180,182,182,183,183,184,184,185,185,192,192,194,194,195,195,199,199,201,201,202,202,206,206,210,210,213,213,214,214,215,215,216,216,218,218,219,219,220,220,221,221,225,225,229,229,230,230,231,231],"right_children":[2,4,6,8,10,12,14,16,18,20,22,24,26,28,30,32,34,36,38,40,42,44,46,48,50,52,54,56,58,60,62,64,66,68,70,-1,72,74,76,78,-1,80,82,-1,84,86,88,90,92,-1,-1,94,96,-1,-1,98,-1,100,102,104,106,-1,-1,108,110,112,114,116,118,120,122,124,-1,-1,-1,126,-1,128,130,-1,132,134,136,138,-1,-1,-1,140,-1,142,-1,144,146,148,150,152,-1,154,-1,156,-1,158,160,162,-1,-1,-1,164,-1,-1,-1,166,168,-1,170,-1,172,174,176,178,180,182,184,186,188,190,-1,-1,192,-1,194,196,-1,198,-1,200,202,-1,-1,-1,204,206,-1,208,210,212,-1,-1,-1,214,-1,216,218,220,222,224,226,-1,-1,228,-1,230,232,234,236,238,240,242,-1,-1,-1,244,246,248,250,252,254,256,258,260,262,-1,264,266,268,270,-1,-1,-1,-1,-1,-1,272,-1,274,276,-1,-1,-1,278,-1,280,282,-1,-1,-1,284,-1,-1,-1,286,-1,-1,288,290,292,294,-1,296,298,300,302,-1,-1,-1,304,-1,-1,-1,306,308,310,-1,-1,-1,-1,-1,-1,-1,-1,-1,-1,-1,-1,-1,-1,-1,-1,-1,-1,-1,-1,-1,-1,-1,-1,-1,-1,-1,-1,-1,-1,-1,-1,-1,-1,-1,-1,-1,-1,-1,-1,-1,-1,-1,-1,-1,-1,-1,-1,-1,-1,-1,-1,-1,-1,-1,-1,-1,-1,-1,-1,-1,-1,-1,-1,-1,-1,-1,-1,-1,-1,-1,-1,-1,-1,-1,-1,-1,-1,-1],"split_conditions":[6E0,1.8018018E-2,1.6666667E-1,2.42E2,1.798E3,3E0,2E-2,2E0,4.125E0,2E-2,2.148514E-1,6.0625E0,2.954E3,1.9E1,6.665E3,5.3846157E-1,2.8866675E-1,9.8734176E-1,2E-2,1.2380642E-1,7.2727275E-1,2E-2,1.19521916E-1,1E0,9.615385E-3,7.058824E-2,1.0163339E-1,1.2180269E-3,5.21E2,5.263158E-2,2.857143E-1,2.108185E0,1.4029851E1,2E-2,4.722222E-1,-1.3476124E-1,7.5555553E0,3.21E2,1.6666667E-1,8.054545E0,-1.8066177E-1,7.368421E0,4E0,2.4982458E-1,5E-1,1.1111111E-1,1.2881857E1,1.0909091E0,2E0,2.7706644E-1,8.8284295E-3,1.1E1,1.25E-2,2.7265677E-1,-0E0,7.142857E0,-1.6850679E-1,1.6165769E0,1.1111112E0,2.9545453E-1,5.357143E-2,-1.7580685E-1,2.3766553E-1,1.2547051E-3,5.2413793E0,9.615385E-3,5E-1,5.516129E0,9E-1,7.058824E-1,8.4617E-1,1.1588566E0,2.744194E-1,-0E0,2.5854737E-1,6.1445785E-1,5.839063E-2,1E0,1.8181819E-1,-1.24313906E-1,5.16129E-1,9.615385E-3,2.5788072E-1,8.888889E-1,1.2993468E-2,-0E0,2.808973E-1,2.9545453E-1,-1.7232192E-1,9.615385E-3,2.581943E-1,6.666667E-2,3.3333333E0,8.054545E0,5.2413793E0,8.054545E0,-2.2122851E-1,9.871625E-1,-1.15393914E-1,2.5E-2,1.7725043E-2,8.25E2,4.054054E-2,9E0,-2.7863926E-1,1.15317516E-1,-5.3411607E-2,1E0,-1.4367004E-1,6.1654334E-4,-1.4270346E-1,1.3047619E1,8.8125E0,-0E0,4E0,-2.1837322E-1,2.5925925E-1,7.1428573E-1,1.1833333E1,5E-1,7.3333335E0,4E0,9.059702E0,5.2413793E0,7.0625E0,1.01265825E-1,-2.4668379E-1,-0E0,3E0,-2.3878112E-1,1.1111112E0,1.2180269E-3,-4.212528E-2,7.8125E-1,2.4585178E-1,4.1322315E-1,9.818182E0,-2.9790497E-1,-0E0,-9.121536E-2,2.355E3,5.806664E-1,-1.3212835E-2,2.125E0,4.3333335E0,2.037037E-1,4.609867E-2,-3.0394405E-1,4.625658E-3,1.27E2,-3.1629407E-1,1.5786504E0,4E-1,5.3333335E0,1E0,1.0981268E0,1.1111112E0,5.2880876E-2,-1.23656996E-1,1.225E1,-1.5512662E-2,5E0,1.6E1,7.158196E-4,1.1528302E1,1.105E1,4E0,2E0,1.9023032E-1,1.8702629E-1,2.568737E-1,1.25E-2,1.8181819E-1,2.22E2,3.265306E-1,6.666667E-2,1.4E1,2E-2,8.0178374E-1,3E0,5.555556E-1,3.0975193E-1,1.2E1,5.3333336E-1,1.25E-2,4.3333335E0,-1.5781999E-1,1.7708276E-1,-0E0,6.941039E-2,-1.1035113E-2,2.565232E-1,3E0,-6.872215E-2,2E0,1.2571428E1,-2.3865782E-2,5.8667514E-2,-7.9515636E-2,1.1E1,1.1399499E-1,2.35E2,8.5714287E-1,-0E0,1.894381E-1,9.900443E-2,2.5E-2,-4.668793E-2,5.0654113E-2,1.3834438E-1,3.4285715E-1,-2.2148395E-1,5.8738254E-3,1.0909091E0,3.3333333E0,1.3908365E0,5E0,-1.9487898E-1,1.1359185E0,5.0357145E-1,4.3795824E-1,1.0909091E0,2.0318693E-1,-7.772223E-2,1.0256838E-1,3E1,-2.628497E-1,1.7397352E-1,-0E0,2.037037E-1,1.5555556E0,1.1111111E-1,9.249381E-2,2.450123E-1,3.1014347E-2,2.1698995E-1,3.16203E-2,-2.083135E-3,1.1119788E-1,2.1098562E-2,1.545526E-1,7.12206E-2,-2.1556426E-2,9.31323E-2,-1.5930383E-1,-6.338044E-2,2.4823408E-1,-3.3143333E-1,3.3562794E-2,-2.354246E-1,7.150414E-2,6.521873E-2,-2.6504874E-1,4.766138E-2,1.6269433E-1,6.1025377E-3,-3.038191E-1,-2.8315362E-2,1.8866986E-1,-0E0,-2.527649E-1,6.0932215E-2,2.4994503E-1,-6.994893E-2,1.7802085E-1,-8.9318976E-2,1.9400363E-1,7.8253355E-3,-3.5436988E-1,-2.36774E-2,5.550832E-2,1.0504656E-1,-0E0,-0E0,1.2616564E-1,2.9148087E-1,-0E0,-1.3130662E-1,-3.142988E-1,-1.451003E-1,1.9493642E-1,-2.7642888E-1,-5.3146705E-3,-5.923872E-2,9.91637E-3,1.7800696E-2,-1.1937098E-1,-7.531125E-2,2.2075024E-1,-1.3419111E-1,6.865776E-2,-2.087417E-3,1.4863966E-1,2.2151982E-2,-3.6939117E-1,-0E0,2.4049862E-1,2.1590376E-1,-0E0,1.027331E-1,-1.8032542E-1,-0E0,6.216927E-2,4.5625642E-2,-7.984598E-2,-2.5147837E-1,-1.303897E-1,-2.3856129E-1,1.3450164E-1,-2.7388102E-1,-0E0],"split_indices":[18,3,15,1,1,1,14,1,15,14,19,22,1,1,1,14,19,8,14,19,8,14,15,1,12,14,3,5,1,10,14,19,22,14,14,0,22,1,14,22,0,22,1,0,3,20,22,17,1,0,0,1,15,0,0,17,0,19,15,20,3,0,0,9,22,12,8,22,14,17,19,19,0,0,0,20,0,1,4,0,10,12,19,12,0,0,0,20,0,12,0,20,17,22,22,22,0,19,0,17,0,1,3,1,0,0,0,1,0,0,0,22,22,0,18,0,20,15,22,6,22,18,22,22,22,14,0,0,18,0,15,5,0,8,0,5,22,0,0,0,1,19,0,17,22,14,0,0,0,1,0,19,14,22,1,19,15,0,0,15,0,1,15,6,22,22,18,18,0,0,0,15,4,1,14,20,1,14,19,1,15,0,1,4,15,22,0,0,0,0,0,0,1,0,1,22,0,0,0,1,0,1,14,0,0,0,17,0,0,0,20,0,0,17,17,19,1,0,19,20,19,17,0,0,0,1,0,0,0,14,17,6,0,0,0,0,0,0,0,0,0,0,0,0,0,0,0,0,0,0,0,0,0,0,0,0,0,0,0,0,0,0,0,0,0,0,0,0,0,0,0,0,0,0,0,0,0,0,0,0,0,0,0,0,0,0,0,0,0,0,0,0,0,0,0,0,0,0,0,0,0,0,0,0,0,0,0,0,0,0,0],"split_type":[0,0,0,0,0,0,0,0,0,0,0,0,0,0,0,0,0,0,0,0,0,0,0,0,0,0,0,0,0,0,0,0,0,0,0,0,0,0,0,0,0,0,0,0,0,0,0,0,0,0,0,0,0,0,0,0,0,0,0,0,0,0,0,0,0,0,0,0,0,0,0,0,0,0,0,0,0,0,0,0,0,0,0,0,0,0,0,0,0,0,0,0,0,0,0,0,0,0,0,0,0,0,0,0,0,0,0,0,0,0,0,0,0,0,0,0,0,0,0,0,0,0,0,0,0,0,0,0,0,0,0,0,0,0,0,0,0,0,0,0,0,0,0,0,0,0,0,0,0,0,0,0,0,0,0,0,0,0,0,0,0,0,0,0,0,0,0,0,0,0,0,0,0,0,0,0,0,0,0,0,0,0,0,0,0,0,0,0,0,0,0,0,0,0,0,0,0,0,0,0,0,0,0,0,0,0,0,0,0,0,0,0,0,0,0,0,0,0,0,0,0,0,0,0,0,0,0,0,0,0,0,0,0,0,0,0,0,0,0,0,0,0,0,0,0,0,0,0,0,0,0,0,0,0,0,0,0,0,0,0,0,0,0,0,0,0,0,0,0,0,0,0,0,0,0,0,0,0,0,0,0,0,0,0,0,0,0,0,0,0,0,0,0,0,0,0,0,0,0,0,0,0,0,0,0,0,0,0,0,0,0],"sum_hessian":[1.1244178E4,6.9803145E3,4.263863E3,5.9566465E3,1.023668E3,6.283633E2,3.6354998E3,4.1483438E3,1.8083025E3,7.522001E2,2.71468E2,3.107253E2,3.1763794E2,2.8606274E2,3.349437E3,2.8921301E3,1.2562137E3,1.6739354E3,1.3436699E2,7.559139E1,6.7660864E2,9.03165E1,1.811515E2,2.1192186E2,9.880345E1,2.3340523E2,8.423272E1,2.396647E2,4.6398026E1,3.3153777E3,3.4059322E1,7.035908E2,2.1885393E3,6.601349E2,5.9607886E2,3.3228922E0,1.6706125E3,9.870851E1,3.565848E1,6.858865E1,7.0027447E0,4.0115845E1,6.364928E2,3.3089676E1,5.722682E1,1.5771484E2,2.3436655E1,1.4354462E2,6.837724E1,9.4457565E1,4.3458834E0,1.27402534E2,1.0600269E2,8.2175804E1,2.056918E0,2.3671432E2,2.9503813E0,2.7468018E1,1.8930008E1,3.3120178E3,3.3597002E0,9.341674E0,2.4717648E1,6.9484216E2,8.748654E0,1.6788749E3,5.096644E2,1.026749E2,5.5745996E2,1.9200633E2,4.040725E2,1.6076832E1,1.6545358E3,1.6147581E0,9.709375E1,3.3740128E1,1.9183549E0,5.315916E1,1.5429489E1,3.2023394E0,3.6913506E1,2.4260748E1,6.1223206E2,5.485208E1,2.3747404E0,1.0797338E0,1.5663512E2,1.4620309E1,8.816345E0,2.8515606E1,1.15029015E2,4.440101E1,2.3976233E1,5.3641132E1,7.37614E1,9.302859E1,1.2974109E1,2.3241878E2,4.295556E0,2.3591898E1,3.876119E0,5.498556E0,1.3431452E1,5.9829224E2,2.7137258E3,1.5139924E0,1.8457077E0,6.933541E2,1.4880395E0,6.41945E0,2.329204E0,1.4270454E3,2.5182957E2,3.0334873E0,5.066309E2,1.2676078E1,8.999882E1,4.0765753E2,1.4980244E2,8.567103E1,1.06335304E2,2.5242644E2,1.5164609E2,6.569269E0,9.507563E0,4.0506997E0,2.9689428E1,3.037796E0,5.0121365E1,4.9558992E0,1.047359E1,3.563265E1,1.28086E0,1.7146978E1,7.1137695E0,4.0914496E2,2.030871E2,5.3559296E1,1.292784E0,2.6626272E0,1.1957682E1,2.3521309E1,4.9942966E0,1.7699995E1,2.6701015E1,1.9983994E1,3.9922383E0,5.0105824E1,3.5353081E0,6.1288548E1,1.247285E1,5.2660423E1,4.0368164E1,9.70496E1,1.3536917E2,6.3810415E0,1.7210857E1,2.770469E0,2.7280872E0,1.2409122E1,1.0223292E0,1.7695113E2,4.213411E2,4.9616577E2,1.9718835E2,9.5100665E2,4.7603873E2,2.202805E1,2.2980153E2,3.5901462E2,1.4761629E2,4.7765465E0,8.522227E1,2.262745E2,1.8138303E2,1.7799492E1,1.3200294E2,7.218619E1,1.3484844E1,1.01223545E1,9.621295E1,1.8831808E2,6.410835E1,8.884729E1,6.2798798E1,3.6586294E0,2.9106395E0,7.9466968E0,1.5608664E0,2.841824E0,1.2088757E0,3.9104336E1,1.101703E1,1.7015007E0,8.772089E0,3.4366306E1,1.2663409E0,2.558848E0,1.4588131E1,4.0762302E2,1.5219343E0,4.8443115E1,1.5464398E2,2.1070976E0,9.850584E0,2.0790825E1,2.7304847E0,1.56125145E1,2.0874794E0,2.306499E1,3.6360252E0,1.8918741E1,1.065252E0,2.4628435E1,3.6660114E1,3.8041874E1,1.461855E1,3.5784383E0,3.6789726E1,6.2511497E1,3.45381E1,7.396534E0,1.2797264E2,2.3178856E0,4.0631557E0,3.975429E0,1.3235428E1,1.1172728E1,1.2363951E0,1.25696686E2,5.1254444E1,4.1944733E2,1.8937613E0,4.7901636E2,1.7149418E1,1.3929031E2,5.789803E1,1.3605084E2,8.149558E2,4.2602863E2,5.0010098E1,1.336582E1,8.662229E0,2.784615E0,1.9919314E0,1.2378352E0,8.3984436E1,2.2397795E2,2.2965574E0,1.3179002E2,4.9593002E1,9.102229E0,8.697263E0,4.921671E1,8.278624E1,7.565321E0,6.4620865E1,6.90388E0,6.580964E0,2.818795E0,7.3035593E0,6.460848E1,3.1604471E1,2.0718164E1,4.339019E1,3.8065145E0,8.504078E1,4.6274353E1,1.6524443E1,1.0736755E0,2.584954E0,3.5446146E0,7.4724154E0,1.5050727E0,7.2670164E0,3.01817E1,4.184606E0,1.951794E1,3.881051E2,1.7315098E1,3.1128017E1,1.333358E2,2.1308186E1,1.1439456E0,1.5865391E0,2.1817706E0,1.4542546E0,2.3356922E0,2.2292742E1,2.8112268E1,8.547846E0,1.7756306E1,2.0285566E1,5.325833E0,9.292717E0,1.846704E0,3.494302E1,6.065125E1,1.8602471E0,1.0585627E1,2.3952473E1,5.0966854E0,2.2998488E0,2.220831E0,1.7545981E0,8.92093E1,3.648739E1,1.5028153E1,3.6226288E1,4.1609515E2,3.3521664E0],"tree_param":{"num_deleted":"0","num_feature":"24","num_nodes":"311","size_leaf_vector":"1"}},{"base_weights":[-6.3037737E-3,3.9000186E-1,-6.908641E-1,2.5808328E-1,8.613496E-1,9.975597E-2,-9.668203E-1,4.4583514E-1,-3.889168E-1,5.709579E-1,1.020421E0,3.741192E-1,-2.7564302E-1,-1.0336825E0,8.6449444E-1,3.681439E-1,8.0721223E-1,-6.493475E-1,3.9381224E-1,8.255879E-1,-4.6046084E-1,1.0593107E0,5.2848566E-1,5.295825E-1,-2.3395841E-1,-4.4930023E-1,2.5807303E-1,-0E0,-1.0491725E0,-4.304223E-1,2.628808E-1,2.9984966E-1,7.9439634E-1,8.4743965E-1,4.5846587E-1,4.2548278E-1,-8.004021E-1,-1.0030589E0,8.196399E-1,2.9567072E-1,9.4876736E-1,-8.554735E-1,5.3798956E-1,1.0751793E0,4.062816E-1,1.2508923E-1,2.3102516E-1,6.528285E-2,7.24775E-1,3.2740852E-1,-8.500942E-1,-1.0434298E-2,-7.1737534E-1,-2.004784E-3,7.7987725E-1,4.1141775E-1,-4.93018E-1,-6.534025E-1,-1.066113E0,3.2573298E-2,-1.6072223E-1,6.28525E-2,4.2181504E-1,3.9581656E-1,9.1958624E-1,-9.1753425E-3,8.557365E-1,9.285048E-3,8.153554E-1,5.8560276E-1,-2.0207274E-1,-3.545333E-1,-1.0302215E0,-1.046349E0,1.9930536E-3,8.6422133E-1,-4.3546766E-1,8.75122E-1,-2.420218E-1,2.4495342E-1,2.8319874E-1,-2.665864E-1,4.655109E-1,-1.3259485E-1,8.1220025E-1,2.6938325E-1,1.37655E-1,7.8744966E-1,-1.2316001E-1,5.7594085E-1,-5.6682855E-1,2.565606E-1,-2.8060165E-1,4.78975E-1,9.5806223E-1,6.2124074E-1,-9.658864E-2,-1.312172E-1,-9.572384E-1,-3.1941175E-1,5.5755365E-1,-7.672824E-1,1.3090143E-1,6.778457E-1,-2.4539156E-1,-9.479564E-2,9.680251E-1,1.9032003E-1,-1.2351429E-1,-7.06248E-1,7.343328E-2,-9.4262034E-1,